digraph Tree {
node [shape=box, style="filled, rounded", color="black", fontname="helvetica"] ;
edge [fontname="helvetica"] ;
0 [label="dst_port <= 139.5\ngini = 0.9\nsamples = 234325\nvalue = [23485, 23450, 23469, 23443, 23366, 23369, 23276, 23502\n23559, 23406]\nclass = transaction", fillcolor="#ffffff"] ;
1 [label="src_port <= 130.0\ngini = 0.62\nsamples = 52449\nvalue = [623, 0, 774, 23169, 21914, 17, 242, 470, 5082, 158]\nclass = control", fillcolor="#f7fef8"] ;
0 -> 1 [labeldistance=2.5, labelangle=45, headlabel="True"] ;
2 [label="dst_port <= 66.0\ngini = 0.002\nsamples = 19074\nvalue = [0, 0, 0, 19056, 11, 7, 0, 0, 0, 0]\nclass = control", fillcolor="#39e55e"] ;
1 -> 2 ;
3 [label="src2dst_bytes <= 7821.5\ngini = 0.001\nsamples = 17702\nvalue = [0, 0, 0, 17695, 0, 7, 0, 0, 0, 0]\nclass = control", fillcolor="#39e55e"] ;
2 -> 3 ;
4 [label="gini = 0.0\nsamples = 15435\nvalue = [0, 0, 0, 15435, 0, 0, 0, 0, 0, 0]\nclass = control", fillcolor="#39e55e"] ;
3 -> 4 ;
5 [label="src2dst_packets <= 31.0\ngini = 0.006\nsamples = 2267\nvalue = [0, 0, 0, 2260, 0, 7, 0, 0, 0, 0]\nclass = control", fillcolor="#3ae55e"] ;
3 -> 5 ;
6 [label="gini = 0.0\nsamples = 7\nvalue = [0, 0, 0, 0, 0, 7, 0, 0, 0, 0]\nclass = default", fillcolor="#399de5"] ;
5 -> 6 ;
7 [label="gini = 0.0\nsamples = 2260\nvalue = [0, 0, 0, 2260, 0, 0, 0, 0, 0, 0]\nclass = control", fillcolor="#39e55e"] ;
5 -> 7 ;
8 [label="src_port <= 68.5\ngini = 0.016\nsamples = 1372\nvalue = [0, 0, 0, 1361, 11, 0, 0, 0, 0, 0]\nclass = control", fillcolor="#3be55f"] ;
2 -> 8 ;
9 [label="dst2src_packets <= 4.0\ngini = 0.457\nsamples = 17\nvalue = [0, 0, 0, 6, 11, 0, 0, 0, 0, 0]\nclass = critical", fillcolor="#a5f3e5"] ;
8 -> 9 ;
10 [label="gini = 0.0\nsamples = 11\nvalue = [0, 0, 0, 0, 11, 0, 0, 0, 0, 0]\nclass = critical", fillcolor="#39e5c5"] ;
9 -> 10 ;
11 [label="gini = 0.0\nsamples = 6\nvalue = [0, 0, 0, 6, 0, 0, 0, 0, 0, 0]\nclass = control", fillcolor="#39e55e"] ;
9 -> 11 ;
12 [label="gini = 0.0\nsamples = 1355\nvalue = [0, 0, 0, 1355, 0, 0, 0, 0, 0, 0]\nclass = control", fillcolor="#39e55e"] ;
8 -> 12 ;
13 [label="dst_port <= 53.5\ngini = 0.53\nsamples = 33375\nvalue = [623, 0, 774, 4113, 21903, 10, 242, 470, 5082, 158]\nclass = critical", fillcolor="#89f0dd"] ;
1 -> 13 ;
14 [label="dst_port <= 52.5\ngini = 0.115\nsamples = 23191\nvalue = [611.0, 0.0, 349.0, 6.0, 21798.0, 4.0, 0.0, 423.0, 0.0\n0.0]\nclass = critical", fillcolor="#45e7c9"] ;
13 -> 14 ;
15 [label="dst_port <= 22.5\ngini = 0.465\nsamples = 958\nvalue = [611.0, 0.0, 343.0, 0.0, 0.0, 4.0, 0.0, 0.0, 0.0, 0.0]\nclass = OAM", fillcolor="#f4c8a9"] ;
14 -> 15 ;
16 [label="dst_port <= 21.5\ngini = 0.282\nsamples = 730\nvalue = [607, 0, 119, 0, 0, 4, 0, 0, 0, 0]\nclass = OAM", fillcolor="#ea9a61"] ;
15 -> 16 ;
17 [label="dst_port <= 11.5\ngini = 0.056\nsamples = 105\nvalue = [0, 0, 102, 0, 0, 3, 0, 0, 0, 0]\nclass = bulk", fillcolor="#7fe63f"] ;
16 -> 17 ;
18 [label="gini = 0.0\nsamples = 3\nvalue = [0, 0, 0, 0, 0, 3, 0, 0, 0, 0]\nclass = default", fillcolor="#399de5"] ;
17 -> 18 ;
19 [label="gini = 0.0\nsamples = 102\nvalue = [0, 0, 102, 0, 0, 0, 0, 0, 0, 0]\nclass = bulk", fillcolor="#7be539"] ;
17 -> 19 ;
20 [label="dst2src_packets <= 1.0\ngini = 0.056\nsamples = 625\nvalue = [607, 0, 17, 0, 0, 1, 0, 0, 0, 0]\nclass = OAM", fillcolor="#e6853f"] ;
16 -> 20 ;
21 [label="gini = 0.0\nsamples = 2\nvalue = [0, 0, 2, 0, 0, 0, 0, 0, 0, 0]\nclass = bulk", fillcolor="#7be539"] ;
20 -> 21 ;
22 [label="src_port <= 57913.0\ngini = 0.05\nsamples = 623\nvalue = [607, 0, 15, 0, 0, 1, 0, 0, 0, 0]\nclass = OAM", fillcolor="#e6843e"] ;
20 -> 22 ;
23 [label="src_port <= 55526.5\ngini = 0.018\nsamples = 539\nvalue = [534, 0, 5, 0, 0, 0, 0, 0, 0, 0]\nclass = OAM", fillcolor="#e5823b"] ;
22 -> 23 ;
24 [label="gini = 0.0\nsamples = 436\nvalue = [436, 0, 0, 0, 0, 0, 0, 0, 0, 0]\nclass = OAM", fillcolor="#e58139"] ;
23 -> 24 ;
25 [label="src_port <= 55585.0\ngini = 0.092\nsamples = 103\nvalue = [98, 0, 5, 0, 0, 0, 0, 0, 0, 0]\nclass = OAM", fillcolor="#e68743"] ;
23 -> 25 ;
26 [label="src2dst_bytes <= 20354.0\ngini = 0.32\nsamples = 5\nvalue = [1, 0, 4, 0, 0, 0, 0, 0, 0, 0]\nclass = bulk", fillcolor="#9cec6a"] ;
25 -> 26 ;
27 [label="gini = 0.0\nsamples = 4\nvalue = [0, 0, 4, 0, 0, 0, 0, 0, 0, 0]\nclass = bulk", fillcolor="#7be539"] ;
26 -> 27 ;
28 [label="gini = 0.0\nsamples = 1\nvalue = [1, 0, 0, 0, 0, 0, 0, 0, 0, 0]\nclass = OAM", fillcolor="#e58139"] ;
26 -> 28 ;
29 [label="src_port <= 55693.0\ngini = 0.02\nsamples = 98\nvalue = [97.0, 0.0, 1.0, 0.0, 0.0, 0.0, 0.0, 0.0, 0.0, 0.0]\nclass = OAM", fillcolor="#e5823b"] ;
25 -> 29 ;
30 [label="gini = 0.375\nsamples = 4\nvalue = [3, 0, 1, 0, 0, 0, 0, 0, 0, 0]\nclass = OAM", fillcolor="#eeab7b"] ;
29 -> 30 ;
31 [label="gini = 0.0\nsamples = 94\nvalue = [94, 0, 0, 0, 0, 0, 0, 0, 0, 0]\nclass = OAM", fillcolor="#e58139"] ;
29 -> 31 ;
32 [label="src_port <= 59910.5\ngini = 0.23\nsamples = 84\nvalue = [73, 0, 10, 0, 0, 1, 0, 0, 0, 0]\nclass = OAM", fillcolor="#e99456"] ;
22 -> 32 ;
33 [label="dst2src_packets <= 93.0\ngini = 0.51\nsamples = 27\nvalue = [16, 0, 10, 0, 0, 1, 0, 0, 0, 0]\nclass = OAM", fillcolor="#f6d3b9"] ;
32 -> 33 ;
34 [label="dst2src_bytes <= 13798.0\ngini = 0.439\nsamples = 14\nvalue = [3, 0, 10, 0, 0, 1, 0, 0, 0, 0]\nclass = bulk", fillcolor="#abee81"] ;
33 -> 34 ;
35 [label="gini = 0.375\nsamples = 4\nvalue = [3, 0, 0, 0, 0, 1, 0, 0, 0, 0]\nclass = OAM", fillcolor="#eeab7b"] ;
34 -> 35 ;
36 [label="gini = 0.0\nsamples = 10\nvalue = [0, 0, 10, 0, 0, 0, 0, 0, 0, 0]\nclass = bulk", fillcolor="#7be539"] ;
34 -> 36 ;
37 [label="gini = 0.0\nsamples = 13\nvalue = [13, 0, 0, 0, 0, 0, 0, 0, 0, 0]\nclass = OAM", fillcolor="#e58139"] ;
33 -> 37 ;
38 [label="gini = 0.0\nsamples = 57\nvalue = [57, 0, 0, 0, 0, 0, 0, 0, 0, 0]\nclass = OAM", fillcolor="#e58139"] ;
32 -> 38 ;
39 [label="src2dst_bytes <= 817.0\ngini = 0.034\nsamples = 228\nvalue = [4, 0, 224, 0, 0, 0, 0, 0, 0, 0]\nclass = bulk", fillcolor="#7de53d"] ;
15 -> 39 ;
40 [label="gini = 0.0\nsamples = 3\nvalue = [3, 0, 0, 0, 0, 0, 0, 0, 0, 0]\nclass = OAM", fillcolor="#e58139"] ;
39 -> 40 ;
41 [label="src2dst_packets <= 19.5\ngini = 0.009\nsamples = 225\nvalue = [1, 0, 224, 0, 0, 0, 0, 0, 0, 0]\nclass = bulk", fillcolor="#7ce53a"] ;
39 -> 41 ;
42 [label="dst2src_packets <= 4.5\ngini = 0.074\nsamples = 26\nvalue = [1, 0, 25, 0, 0, 0, 0, 0, 0, 0]\nclass = bulk", fillcolor="#80e641"] ;
41 -> 42 ;
43 [label="gini = 0.0\nsamples = 25\nvalue = [0, 0, 25, 0, 0, 0, 0, 0, 0, 0]\nclass = bulk", fillcolor="#7be539"] ;
42 -> 43 ;
44 [label="gini = 0.0\nsamples = 1\nvalue = [1, 0, 0, 0, 0, 0, 0, 0, 0, 0]\nclass = OAM", fillcolor="#e58139"] ;
42 -> 44 ;
45 [label="gini = 0.0\nsamples = 199\nvalue = [0, 0, 199, 0, 0, 0, 0, 0, 0, 0]\nclass = bulk", fillcolor="#7be539"] ;
41 -> 45 ;
46 [label="dst2src_bytes <= 141.0\ngini = 0.038\nsamples = 22233\nvalue = [0.0, 0.0, 6.0, 6.0, 21798.0, 0.0, 0.0, 423.0, 0.0\n0.0]\nclass = critical", fillcolor="#3de6c6"] ;
14 -> 46 ;
47 [label="dst2src_packets <= 1.0\ngini = 0.419\nsamples = 1422\nvalue = [0.0, 0.0, 1.0, 0.0, 998.0, 0.0, 0.0, 423.0, 0.0, 0.0]\nclass = critical", fillcolor="#8df0de"] ;
46 -> 47 ;
48 [label="src2dst_bytes <= 913.5\ngini = 0.002\nsamples = 999\nvalue = [0, 0, 1, 0, 998, 0, 0, 0, 0, 0]\nclass = critical", fillcolor="#39e5c5"] ;
47 -> 48 ;
49 [label="gini = 0.0\nsamples = 998\nvalue = [0, 0, 0, 0, 998, 0, 0, 0, 0, 0]\nclass = critical", fillcolor="#39e5c5"] ;
48 -> 49 ;
50 [label="gini = 0.0\nsamples = 1\nvalue = [0, 0, 1, 0, 0, 0, 0, 0, 0, 0]\nclass = bulk", fillcolor="#7be539"] ;
48 -> 50 ;
51 [label="gini = 0.0\nsamples = 423\nvalue = [0, 0, 0, 0, 0, 0, 0, 423, 0, 0]\nclass = signaling", fillcolor="#a339e5"] ;
47 -> 51 ;
52 [label="protocol <= 11.5\ngini = 0.001\nsamples = 20811\nvalue = [0, 0, 5, 6, 20800, 0, 0, 0, 0, 0]\nclass = critical", fillcolor="#39e5c5"] ;
46 -> 52 ;
53 [label="src2dst_packets <= 36.5\ngini = 0.494\nsamples = 9\nvalue = [0, 0, 5, 0, 4, 0, 0, 0, 0, 0]\nclass = bulk", fillcolor="#e5fad7"] ;
52 -> 53 ;
54 [label="gini = 0.0\nsamples = 4\nvalue = [0, 0, 0, 0, 4, 0, 0, 0, 0, 0]\nclass = critical", fillcolor="#39e5c5"] ;
53 -> 54 ;
55 [label="gini = 0.0\nsamples = 5\nvalue = [0, 0, 5, 0, 0, 0, 0, 0, 0, 0]\nclass = bulk", fillcolor="#7be539"] ;
53 -> 55 ;
56 [label="dst2src_bytes <= 173.0\ngini = 0.001\nsamples = 20802\nvalue = [0.0, 0.0, 0.0, 6.0, 20796.0, 0.0, 0.0, 0.0, 0.0, 0.0]\nclass = critical", fillcolor="#39e5c5"] ;
52 -> 56 ;
57 [label="src_port <= 60384.5\ngini = 0.018\nsamples = 644\nvalue = [0, 0, 0, 6, 638, 0, 0, 0, 0, 0]\nclass = critical", fillcolor="#3be5c6"] ;
56 -> 57 ;
58 [label="src_port <= 47683.0\ngini = 0.013\nsamples = 617\nvalue = [0, 0, 0, 4, 613, 0, 0, 0, 0, 0]\nclass = critical", fillcolor="#3ae5c5"] ;
57 -> 58 ;
59 [label="gini = 0.0\nsamples = 307\nvalue = [0, 0, 0, 0, 307, 0, 0, 0, 0, 0]\nclass = critical", fillcolor="#39e5c5"] ;
58 -> 59 ;
60 [label="src_port <= 47718.0\ngini = 0.025\nsamples = 310\nvalue = [0, 0, 0, 4, 306, 0, 0, 0, 0, 0]\nclass = critical", fillcolor="#3ce5c6"] ;
58 -> 60 ;
61 [label="gini = 0.0\nsamples = 2\nvalue = [0, 0, 0, 2, 0, 0, 0, 0, 0, 0]\nclass = control", fillcolor="#39e55e"] ;
60 -> 61 ;
62 [label="src_port <= 50961.5\ngini = 0.013\nsamples = 308\nvalue = [0, 0, 0, 2, 306, 0, 0, 0, 0, 0]\nclass = critical", fillcolor="#3ae5c5"] ;
60 -> 62 ;
63 [label="gini = 0.049\nsamples = 80\nvalue = [0, 0, 0, 2, 78, 0, 0, 0, 0, 0]\nclass = critical", fillcolor="#3ee6c6"] ;
62 -> 63 ;
64 [label="gini = 0.0\nsamples = 228\nvalue = [0, 0, 0, 0, 228, 0, 0, 0, 0, 0]\nclass = critical", fillcolor="#39e5c5"] ;
62 -> 64 ;
65 [label="src_port <= 60453.5\ngini = 0.137\nsamples = 27\nvalue = [0, 0, 0, 2, 25, 0, 0, 0, 0, 0]\nclass = critical", fillcolor="#49e7ca"] ;
57 -> 65 ;
66 [label="gini = 0.0\nsamples = 2\nvalue = [0, 0, 0, 2, 0, 0, 0, 0, 0, 0]\nclass = control", fillcolor="#39e55e"] ;
65 -> 66 ;
67 [label="gini = 0.0\nsamples = 25\nvalue = [0, 0, 0, 0, 25, 0, 0, 0, 0, 0]\nclass = critical", fillcolor="#39e5c5"] ;
65 -> 67 ;
68 [label="gini = 0.0\nsamples = 20158\nvalue = [0, 0, 0, 0, 20158, 0, 0, 0, 0, 0]\nclass = critical", fillcolor="#39e5c5"] ;
56 -> 68 ;
69 [label="protocol <= 12.5\ngini = 0.586\nsamples = 10184\nvalue = [12.0, 0.0, 425.0, 4107.0, 105.0, 6.0, 242.0, 47.0\n5082.0, 158.0]\nclass = transaction", fillcolor="#fbdff5"] ;
13 -> 69 ;
70 [label="dst_port <= 80.5\ngini = 0.259\nsamples = 5933\nvalue = [12, 0, 425, 0, 10, 4, 242, 0, 5082, 158]\nclass = transaction", fillcolor="#e958ca"] ;
69 -> 70 ;
71 [label="dst_port <= 79.5\ngini = 0.155\nsamples = 5474\nvalue = [3, 0, 134, 0, 0, 2, 237, 0, 5025, 73]\nclass = transaction", fillcolor="#e74ac5"] ;
70 -> 71 ;
72 [label="src2dst_packets <= 13.5\ngini = 0.073\nsamples = 134\nvalue = [3, 0, 129, 0, 0, 2, 0, 0, 0, 0]\nclass = bulk", fillcolor="#80e641"] ;
71 -> 72 ;
73 [label="dst2src_bytes <= 64.0\ngini = 0.5\nsamples = 4\nvalue = [2, 0, 0, 0, 0, 2, 0, 0, 0, 0]\nclass = OAM", fillcolor="#ffffff"] ;
72 -> 73 ;
74 [label="gini = 0.0\nsamples = 2\nvalue = [0, 0, 0, 0, 0, 2, 0, 0, 0, 0]\nclass = default", fillcolor="#399de5"] ;
73 -> 74 ;
75 [label="gini = 0.0\nsamples = 2\nvalue = [2, 0, 0, 0, 0, 0, 0, 0, 0, 0]\nclass = OAM", fillcolor="#e58139"] ;
73 -> 75 ;
76 [label="src_port <= 51034.5\ngini = 0.015\nsamples = 130\nvalue = [1, 0, 129, 0, 0, 0, 0, 0, 0, 0]\nclass = bulk", fillcolor="#7ce53b"] ;
72 -> 76 ;
77 [label="gini = 0.0\nsamples = 1\nvalue = [1, 0, 0, 0, 0, 0, 0, 0, 0, 0]\nclass = OAM", fillcolor="#e58139"] ;
76 -> 77 ;
78 [label="gini = 0.0\nsamples = 129\nvalue = [0, 0, 129, 0, 0, 0, 0, 0, 0, 0]\nclass = bulk", fillcolor="#7be539"] ;
76 -> 78 ;
79 [label="src_port <= 56896.5\ngini = 0.112\nsamples = 5340\nvalue = [0.0, 0.0, 5.0, 0.0, 0.0, 0.0, 237.0, 0.0, 5025.0\n73.0]\nclass = transaction", fillcolor="#e745c4"] ;
71 -> 79 ;
80 [label="src_port <= 56725.5\ngini = 0.252\nsamples = 1610\nvalue = [0, 0, 2, 0, 0, 0, 153, 0, 1382, 73]\nclass = transaction", fillcolor="#e958ca"] ;
79 -> 80 ;
81 [label="dst2src_bytes <= 70895.0\ngini = 0.097\nsamples = 1414\nvalue = [0, 0, 2, 0, 0, 0, 0, 0, 1342, 70]\nclass = transaction", fillcolor="#e644c3"] ;
80 -> 81 ;
82 [label="dst2src_packets <= 6.5\ngini = 0.035\nsamples = 1231\nvalue = [0.0, 0.0, 2.0, 0.0, 0.0, 0.0, 0.0, 0.0, 1209.0, 20.0]\nclass = transaction", fillcolor="#e53dc1"] ;
81 -> 82 ;
83 [label="dst2src_bytes <= 1027.5\ngini = 0.204\nsamples = 193\nvalue = [0, 0, 2, 0, 0, 0, 0, 0, 171, 20]\nclass = transaction", fillcolor="#e852c8"] ;
82 -> 83 ;
84 [label="gini = 0.024\nsamples = 162\nvalue = [0, 0, 2, 0, 0, 0, 0, 0, 160, 0]\nclass = transaction", fillcolor="#e53bc1"] ;
83 -> 84 ;
85 [label="gini = 0.458\nsamples = 31\nvalue = [0, 0, 0, 0, 0, 0, 0, 0, 11, 20]\nclass = video", fillcolor="#f3a6b4"] ;
83 -> 85 ;
86 [label="gini = 0.0\nsamples = 1038\nvalue = [0, 0, 0, 0, 0, 0, 0, 0, 1038, 0]\nclass = transaction", fillcolor="#e539c0"] ;
82 -> 86 ;
87 [label="src2dst_packets <= 73.5\ngini = 0.397\nsamples = 183\nvalue = [0.0, 0.0, 0.0, 0.0, 0.0, 0.0, 0.0, 0.0, 133.0, 50.0]\nclass = transaction", fillcolor="#ef83d8"] ;
81 -> 87 ;
88 [label="src_port <= 52420.5\ngini = 0.46\nsamples = 78\nvalue = [0.0, 0.0, 0.0, 0.0, 0.0, 0.0, 0.0, 0.0, 28.0, 50.0]\nclass = video", fillcolor="#f4a8b6"] ;
87 -> 88 ;
89 [label="gini = 0.0\nsamples = 26\nvalue = [0, 0, 0, 0, 0, 0, 0, 0, 26, 0]\nclass = transaction", fillcolor="#e539c0"] ;
88 -> 89 ;
90 [label="gini = 0.074\nsamples = 52\nvalue = [0, 0, 0, 0, 0, 0, 0, 0, 2, 50]\nclass = video", fillcolor="#e6415f"] ;
88 -> 90 ;
91 [label="gini = 0.0\nsamples = 105\nvalue = [0, 0, 0, 0, 0, 0, 0, 0, 105, 0]\nclass = transaction", fillcolor="#e539c0"] ;
87 -> 91 ;
92 [label="src2dst_packets <= 11.5\ngini = 0.349\nsamples = 196\nvalue = [0, 0, 0, 0, 0, 0, 153, 0, 40, 3]\nclass = p2p", fillcolor="#7270ec"] ;
80 -> 92 ;
93 [label="dst2src_bytes <= 972.0\ngini = 0.093\nsamples = 143\nvalue = [0, 0, 0, 0, 0, 0, 136, 0, 7, 0]\nclass = p2p", fillcolor="#4643e6"] ;
92 -> 93 ;
94 [label="gini = 0.0\nsamples = 6\nvalue = [0, 0, 0, 0, 0, 0, 0, 0, 6, 0]\nclass = transaction", fillcolor="#e539c0"] ;
93 -> 94 ;
95 [label="src2dst_bytes <= 1349.5\ngini = 0.014\nsamples = 137\nvalue = [0, 0, 0, 0, 0, 0, 136, 0, 1, 0]\nclass = p2p", fillcolor="#3d3ae5"] ;
93 -> 95 ;
96 [label="gini = 0.0\nsamples = 130\nvalue = [0, 0, 0, 0, 0, 0, 130, 0, 0, 0]\nclass = p2p", fillcolor="#3c39e5"] ;
95 -> 96 ;
97 [label="gini = 0.245\nsamples = 7\nvalue = [0, 0, 0, 0, 0, 0, 6, 0, 1, 0]\nclass = p2p", fillcolor="#5d5ae9"] ;
95 -> 97 ;
98 [label="dst2src_packets <= 8887.0\ngini = 0.506\nsamples = 53\nvalue = [0, 0, 0, 0, 0, 0, 17, 0, 33, 3]\nclass = transaction", fillcolor="#f3a7e3"] ;
92 -> 98 ;
99 [label="src2dst_bytes <= 6359.0\ngini = 0.304\nsamples = 40\nvalue = [0, 0, 0, 0, 0, 0, 4, 0, 33, 3]\nclass = transaction", fillcolor="#ea60cc"] ;
98 -> 99 ;
100 [label="gini = 0.198\nsamples = 36\nvalue = [0, 0, 0, 0, 0, 0, 4, 0, 32, 0]\nclass = transaction", fillcolor="#e852c8"] ;
99 -> 100 ;
101 [label="gini = 0.375\nsamples = 4\nvalue = [0, 0, 0, 0, 0, 0, 0, 0, 1, 3]\nclass = video", fillcolor="#ee7b90"] ;
99 -> 101 ;
102 [label="gini = 0.0\nsamples = 13\nvalue = [0, 0, 0, 0, 0, 0, 13, 0, 0, 0]\nclass = p2p", fillcolor="#3c39e5"] ;
98 -> 102 ;
103 [label="src_port <= 61208.5\ngini = 0.046\nsamples = 3730\nvalue = [0, 0, 3, 0, 0, 0, 84, 0, 3643, 0]\nclass = transaction", fillcolor="#e63ec2"] ;
79 -> 103 ;
104 [label="dst2src_bytes <= 2625.0\ngini = 0.008\nsamples = 2663\nvalue = [0, 0, 0, 0, 0, 0, 11, 0, 2652, 0]\nclass = transaction", fillcolor="#e53ac0"] ;
103 -> 104 ;
105 [label="gini = 0.0\nsamples = 2002\nvalue = [0, 0, 0, 0, 0, 0, 0, 0, 2002, 0]\nclass = transaction", fillcolor="#e539c0"] ;
104 -> 105 ;
106 [label="dst2src_bytes <= 2632.0\ngini = 0.033\nsamples = 661\nvalue = [0, 0, 0, 0, 0, 0, 11, 0, 650, 0]\nclass = transaction", fillcolor="#e53cc1"] ;
104 -> 106 ;
107 [label="gini = 0.0\nsamples = 11\nvalue = [0, 0, 0, 0, 0, 0, 11, 0, 0, 0]\nclass = p2p", fillcolor="#3c39e5"] ;
106 -> 107 ;
108 [label="gini = 0.0\nsamples = 650\nvalue = [0, 0, 0, 0, 0, 0, 0, 0, 650, 0]\nclass = transaction", fillcolor="#e539c0"] ;
106 -> 108 ;
109 [label="dst2src_bytes <= 2033.0\ngini = 0.133\nsamples = 1067\nvalue = [0, 0, 3, 0, 0, 0, 73, 0, 991, 0]\nclass = transaction", fillcolor="#e748c5"] ;
103 -> 109 ;
110 [label="dst2src_packets <= 10.5\ngini = 0.026\nsamples = 671\nvalue = [0, 0, 0, 0, 0, 0, 9, 0, 662, 0]\nclass = transaction", fillcolor="#e53cc1"] ;
109 -> 110 ;
111 [label="gini = 0.0\nsamples = 611\nvalue = [0, 0, 0, 0, 0, 0, 0, 0, 611, 0]\nclass = transaction", fillcolor="#e539c0"] ;
110 -> 111 ;
112 [label="dst2src_packets <= 11.5\ngini = 0.255\nsamples = 60\nvalue = [0, 0, 0, 0, 0, 0, 9, 0, 51, 0]\nclass = transaction", fillcolor="#ea5ccb"] ;
110 -> 112 ;
113 [label="gini = 0.397\nsamples = 11\nvalue = [0, 0, 0, 0, 0, 0, 8, 0, 3, 0]\nclass = p2p", fillcolor="#8583ef"] ;
112 -> 113 ;
114 [label="gini = 0.04\nsamples = 49\nvalue = [0.0, 0.0, 0.0, 0.0, 0.0, 0.0, 1.0, 0.0, 48.0, 0.0]\nclass = transaction", fillcolor="#e63dc1"] ;
112 -> 114 ;
115 [label="dst2src_packets <= 11.5\ngini = 0.284\nsamples = 396\nvalue = [0, 0, 3, 0, 0, 0, 64, 0, 329, 0]\nclass = transaction", fillcolor="#ea61cd"] ;
109 -> 115 ;
116 [label="src2dst_bytes <= 1257.0\ngini = 0.496\nsamples = 140\nvalue = [0, 0, 0, 0, 0, 0, 64, 0, 76, 0]\nclass = transaction", fillcolor="#fbe0f5"] ;
115 -> 116 ;
117 [label="gini = 0.0\nsamples = 40\nvalue = [0, 0, 0, 0, 0, 0, 0, 0, 40, 0]\nclass = transaction", fillcolor="#e539c0"] ;
116 -> 117 ;
118 [label="gini = 0.461\nsamples = 100\nvalue = [0, 0, 0, 0, 0, 0, 64, 0, 36, 0]\nclass = p2p", fillcolor="#aaa8f4"] ;
116 -> 118 ;
119 [label="src2dst_bytes <= 20895.0\ngini = 0.023\nsamples = 256\nvalue = [0, 0, 3, 0, 0, 0, 0, 0, 253, 0]\nclass = transaction", fillcolor="#e53bc1"] ;
115 -> 119 ;
120 [label="gini = 0.0\nsamples = 236\nvalue = [0, 0, 0, 0, 0, 0, 0, 0, 236, 0]\nclass = transaction", fillcolor="#e539c0"] ;
119 -> 120 ;
121 [label="gini = 0.255\nsamples = 20\nvalue = [0, 0, 3, 0, 0, 0, 0, 0, 17, 0]\nclass = transaction", fillcolor="#ea5ccb"] ;
119 -> 121 ;
122 [label="dst2src_bytes <= 24127.0\ngini = 0.547\nsamples = 459\nvalue = [9, 0, 291, 0, 10, 2, 5, 0, 57, 85]\nclass = bulk", fillcolor="#b6f192"] ;
70 -> 122 ;
123 [label="src2dst_packets <= 14.5\ngini = 0.382\nsamples = 375\nvalue = [8, 0, 291, 0, 10, 2, 2, 0, 25, 37]\nclass = bulk", fillcolor="#9ceb6a"] ;
122 -> 123 ;
124 [label="dst2src_packets <= 6.5\ngini = 0.642\nsamples = 67\nvalue = [7, 0, 0, 0, 10, 2, 2, 0, 9, 37]\nclass = video", fillcolor="#f3a1b0"] ;
123 -> 124 ;
125 [label="src2dst_packets <= 7.5\ngini = 0.282\nsamples = 44\nvalue = [4, 0, 0, 0, 0, 2, 0, 0, 1, 37]\nclass = video", fillcolor="#ea5c75"] ;
124 -> 125 ;
126 [label="src2dst_packets <= 4.5\ngini = 0.571\nsamples = 7\nvalue = [4, 0, 0, 0, 0, 2, 0, 0, 1, 0]\nclass = OAM", fillcolor="#f5cdb0"] ;
125 -> 126 ;
127 [label="gini = 0.0\nsamples = 4\nvalue = [4, 0, 0, 0, 0, 0, 0, 0, 0, 0]\nclass = OAM", fillcolor="#e58139"] ;
126 -> 127 ;
128 [label="dst_port <= 94.0\ngini = 0.444\nsamples = 3\nvalue = [0, 0, 0, 0, 0, 2, 0, 0, 1, 0]\nclass = default", fillcolor="#9ccef2"] ;
126 -> 128 ;
129 [label="gini = 0.0\nsamples = 1\nvalue = [0, 0, 0, 0, 0, 0, 0, 0, 1, 0]\nclass = transaction", fillcolor="#e539c0"] ;
128 -> 129 ;
130 [label="gini = 0.0\nsamples = 2\nvalue = [0, 0, 0, 0, 0, 2, 0, 0, 0, 0]\nclass = default", fillcolor="#399de5"] ;
128 -> 130 ;
131 [label="gini = 0.0\nsamples = 37\nvalue = [0, 0, 0, 0, 0, 0, 0, 0, 0, 37]\nclass = video", fillcolor="#e53958"] ;
125 -> 131 ;
132 [label="dst_port <= 136.5\ngini = 0.665\nsamples = 23\nvalue = [3, 0, 0, 0, 10, 0, 2, 0, 8, 0]\nclass = critical", fillcolor="#e5fcf7"] ;
124 -> 132 ;
133 [label="dst2src_bytes <= 2355.5\ngini = 0.544\nsamples = 13\nvalue = [3, 0, 0, 0, 0, 0, 2, 0, 8, 0]\nclass = transaction", fillcolor="#f29ce0"] ;
132 -> 133 ;
134 [label="gini = 0.0\nsamples = 7\nvalue = [0, 0, 0, 0, 0, 0, 0, 0, 7, 0]\nclass = transaction", fillcolor="#e539c0"] ;
133 -> 134 ;
135 [label="dst2src_packets <= 9.5\ngini = 0.611\nsamples = 6\nvalue = [3, 0, 0, 0, 0, 0, 2, 0, 1, 0]\nclass = OAM", fillcolor="#f8e0ce"] ;
133 -> 135 ;
136 [label="gini = 0.0\nsamples = 3\nvalue = [3, 0, 0, 0, 0, 0, 0, 0, 0, 0]\nclass = OAM", fillcolor="#e58139"] ;
135 -> 136 ;
137 [label="gini = 0.444\nsamples = 3\nvalue = [0, 0, 0, 0, 0, 0, 2, 0, 1, 0]\nclass = p2p", fillcolor="#9e9cf2"] ;
135 -> 137 ;
138 [label="gini = 0.0\nsamples = 10\nvalue = [0, 0, 0, 0, 10, 0, 0, 0, 0, 0]\nclass = critical", fillcolor="#39e5c5"] ;
132 -> 138 ;
139 [label="src2dst_packets <= 38.5\ngini = 0.105\nsamples = 308\nvalue = [1, 0, 291, 0, 0, 0, 0, 0, 16, 0]\nclass = bulk", fillcolor="#83e745"] ;
123 -> 139 ;
140 [label="dst2src_bytes <= 945.5\ngini = 0.312\nsamples = 74\nvalue = [1, 0, 60, 0, 0, 0, 0, 0, 13, 0]\nclass = bulk", fillcolor="#99eb66"] ;
139 -> 140 ;
141 [label="gini = 0.0\nsamples = 60\nvalue = [0, 0, 60, 0, 0, 0, 0, 0, 0, 0]\nclass = bulk", fillcolor="#7be539"] ;
140 -> 141 ;
142 [label="dst_port <= 89.5\ngini = 0.133\nsamples = 14\nvalue = [1, 0, 0, 0, 0, 0, 0, 0, 13, 0]\nclass = transaction", fillcolor="#e748c5"] ;
140 -> 142 ;
143 [label="gini = 0.0\nsamples = 1\nvalue = [1, 0, 0, 0, 0, 0, 0, 0, 0, 0]\nclass = OAM", fillcolor="#e58139"] ;
142 -> 143 ;
144 [label="gini = 0.0\nsamples = 13\nvalue = [0, 0, 0, 0, 0, 0, 0, 0, 13, 0]\nclass = transaction", fillcolor="#e539c0"] ;
142 -> 144 ;
145 [label="src2dst_bytes <= 6441.0\ngini = 0.025\nsamples = 234\nvalue = [0, 0, 231, 0, 0, 0, 0, 0, 3, 0]\nclass = bulk", fillcolor="#7de53c"] ;
139 -> 145 ;
146 [label="gini = 0.0\nsamples = 2\nvalue = [0, 0, 0, 0, 0, 0, 0, 0, 2, 0]\nclass = transaction", fillcolor="#e539c0"] ;
145 -> 146 ;
147 [label="src_port <= 52892.0\ngini = 0.009\nsamples = 232\nvalue = [0, 0, 231, 0, 0, 0, 0, 0, 1, 0]\nclass = bulk", fillcolor="#7ce53a"] ;
145 -> 147 ;
148 [label="gini = 0.0\nsamples = 1\nvalue = [0, 0, 0, 0, 0, 0, 0, 0, 1, 0]\nclass = transaction", fillcolor="#e539c0"] ;
147 -> 148 ;
149 [label="gini = 0.0\nsamples = 231\nvalue = [0, 0, 231, 0, 0, 0, 0, 0, 0, 0]\nclass = bulk", fillcolor="#7be539"] ;
147 -> 149 ;
150 [label="src2dst_bytes <= 9913.5\ngini = 0.527\nsamples = 84\nvalue = [1, 0, 0, 0, 0, 0, 3, 0, 32, 48]\nclass = video", fillcolor="#f7c2cc"] ;
122 -> 150 ;
151 [label="src_port <= 58662.0\ngini = 0.33\nsamples = 59\nvalue = [0, 0, 0, 0, 0, 0, 1, 0, 11, 47]\nclass = video", fillcolor="#ec6b82"] ;
150 -> 151 ;
152 [label="src_port <= 52314.0\ngini = 0.204\nsamples = 53\nvalue = [0, 0, 0, 0, 0, 0, 1, 0, 5, 47]\nclass = video", fillcolor="#e8526d"] ;
151 -> 152 ;
153 [label="gini = 0.0\nsamples = 5\nvalue = [0, 0, 0, 0, 0, 0, 0, 0, 5, 0]\nclass = transaction", fillcolor="#e539c0"] ;
152 -> 153 ;
154 [label="dst2src_bytes <= 45740.5\ngini = 0.041\nsamples = 48\nvalue = [0, 0, 0, 0, 0, 0, 1, 0, 0, 47]\nclass = video", fillcolor="#e63d5c"] ;
152 -> 154 ;
155 [label="gini = 0.0\nsamples = 1\nvalue = [0, 0, 0, 0, 0, 0, 1, 0, 0, 0]\nclass = p2p", fillcolor="#3c39e5"] ;
154 -> 155 ;
156 [label="gini = 0.0\nsamples = 47\nvalue = [0, 0, 0, 0, 0, 0, 0, 0, 0, 47]\nclass = video", fillcolor="#e53958"] ;
154 -> 156 ;
157 [label="gini = 0.0\nsamples = 6\nvalue = [0, 0, 0, 0, 0, 0, 0, 0, 6, 0]\nclass = transaction", fillcolor="#e539c0"] ;
151 -> 157 ;
158 [label="src2dst_packets <= 5530.0\ngini = 0.285\nsamples = 25\nvalue = [1, 0, 0, 0, 0, 0, 2, 0, 21, 1]\nclass = transaction", fillcolor="#ea5bcb"] ;
150 -> 158 ;
159 [label="src_port <= 9687.5\ngini = 0.163\nsamples = 23\nvalue = [1, 0, 0, 0, 0, 0, 0, 0, 21, 1]\nclass = transaction", fillcolor="#e74bc6"] ;
158 -> 159 ;
160 [label="gini = 0.0\nsamples = 1\nvalue = [1, 0, 0, 0, 0, 0, 0, 0, 0, 0]\nclass = OAM", fillcolor="#e58139"] ;
159 -> 160 ;
161 [label="src2dst_bytes <= 11424.0\ngini = 0.087\nsamples = 22\nvalue = [0, 0, 0, 0, 0, 0, 0, 0, 21, 1]\nclass = transaction", fillcolor="#e642c3"] ;
159 -> 161 ;
162 [label="src_port <= 57535.0\ngini = 0.375\nsamples = 4\nvalue = [0, 0, 0, 0, 0, 0, 0, 0, 3, 1]\nclass = transaction", fillcolor="#ee7bd5"] ;
161 -> 162 ;
163 [label="gini = 0.0\nsamples = 1\nvalue = [0, 0, 0, 0, 0, 0, 0, 0, 0, 1]\nclass = video", fillcolor="#e53958"] ;
162 -> 163 ;
164 [label="gini = 0.0\nsamples = 3\nvalue = [0, 0, 0, 0, 0, 0, 0, 0, 3, 0]\nclass = transaction", fillcolor="#e539c0"] ;
162 -> 164 ;
165 [label="gini = 0.0\nsamples = 18\nvalue = [0, 0, 0, 0, 0, 0, 0, 0, 18, 0]\nclass = transaction", fillcolor="#e539c0"] ;
161 -> 165 ;
166 [label="gini = 0.0\nsamples = 2\nvalue = [0, 0, 0, 0, 0, 0, 2, 0, 0, 0]\nclass = p2p", fillcolor="#3c39e5"] ;
158 -> 166 ;
167 [label="dst_port <= 123.5\ngini = 0.066\nsamples = 4251\nvalue = [0, 0, 0, 4107, 95, 2, 0, 47, 0, 0]\nclass = control", fillcolor="#40e664"] ;
69 -> 167 ;
168 [label="src2dst_bytes <= 168.5\ngini = 0.021\nsamples = 4151\nvalue = [0, 0, 0, 4107, 0, 2, 0, 42, 0, 0]\nclass = control", fillcolor="#3be560"] ;
167 -> 168 ;
169 [label="gini = 0.0\nsamples = 37\nvalue = [0, 0, 0, 0, 0, 0, 0, 37, 0, 0]\nclass = signaling", fillcolor="#a339e5"] ;
168 -> 169 ;
170 [label="src2dst_bytes <= 727.5\ngini = 0.003\nsamples = 4114\nvalue = [0, 0, 0, 4107, 0, 2, 0, 5, 0, 0]\nclass = control", fillcolor="#39e55e"] ;
168 -> 170 ;
171 [label="dst2src_bytes <= 193.5\ngini = 0.002\nsamples = 4112\nvalue = [0, 0, 0, 4107, 0, 0, 0, 5, 0, 0]\nclass = control", fillcolor="#39e55e"] ;
170 -> 171 ;
172 [label="src2dst_bytes <= 194.0\ngini = 0.001\nsamples = 4110\nvalue = [0, 0, 0, 4107, 0, 0, 0, 3, 0, 0]\nclass = control", fillcolor="#39e55e"] ;
171 -> 172 ;
173 [label="gini = 0.0\nsamples = 4037\nvalue = [0, 0, 0, 4037, 0, 0, 0, 0, 0, 0]\nclass = control", fillcolor="#39e55e"] ;
172 -> 173 ;
174 [label="src_port <= 51738.5\ngini = 0.079\nsamples = 73\nvalue = [0, 0, 0, 70, 0, 0, 0, 3, 0, 0]\nclass = control", fillcolor="#41e665"] ;
172 -> 174 ;
175 [label="gini = 0.0\nsamples = 3\nvalue = [0, 0, 0, 0, 0, 0, 0, 3, 0, 0]\nclass = signaling", fillcolor="#a339e5"] ;
174 -> 175 ;
176 [label="gini = 0.0\nsamples = 70\nvalue = [0, 0, 0, 70, 0, 0, 0, 0, 0, 0]\nclass = control", fillcolor="#39e55e"] ;
174 -> 176 ;
177 [label="gini = 0.0\nsamples = 2\nvalue = [0, 0, 0, 0, 0, 0, 0, 2, 0, 0]\nclass = signaling", fillcolor="#a339e5"] ;
171 -> 177 ;
178 [label="gini = 0.0\nsamples = 2\nvalue = [0, 0, 0, 0, 0, 2, 0, 0, 0, 0]\nclass = default", fillcolor="#399de5"] ;
170 -> 178 ;
179 [label="dst_port <= 135.0\ngini = 0.095\nsamples = 100\nvalue = [0, 0, 0, 0, 95, 0, 0, 5, 0, 0]\nclass = critical", fillcolor="#43e6c8"] ;
167 -> 179 ;
180 [label="gini = 0.0\nsamples = 5\nvalue = [0, 0, 0, 0, 0, 0, 0, 5, 0, 0]\nclass = signaling", fillcolor="#a339e5"] ;
179 -> 180 ;
181 [label="gini = 0.0\nsamples = 95\nvalue = [0, 0, 0, 0, 95, 0, 0, 0, 0, 0]\nclass = critical", fillcolor="#39e5c5"] ;
179 -> 181 ;
182 [label="dst_port <= 993.5\ngini = 0.877\nsamples = 181876\nvalue = [22862.0, 23450.0, 22695.0, 274.0, 1452.0, 23352.0, 23034.0\n23032.0, 18477.0, 23248.0]\nclass = VoIP", fillcolor="#ffffff"] ;
0 -> 182 [labeldistance=2.5, labelangle=-45, headlabel="False"] ;
183 [label="dst_port <= 143.5\ngini = 0.676\nsamples = 55959\nvalue = [115, 0, 14182, 17, 19, 867, 592, 344, 16897, 22926]\nclass = video", fillcolor="#fbe0e5"] ;
182 -> 183 ;
184 [label="src2dst_packets <= 12.5\ngini = 0.003\nsamples = 8711\nvalue = [0, 0, 8698, 0, 0, 0, 0, 5, 3, 5]\nclass = bulk", fillcolor="#7be539"] ;
183 -> 184 ;
185 [label="dst2src_packets <= 3.5\ngini = 0.469\nsamples = 8\nvalue = [0, 0, 0, 0, 0, 0, 0, 5, 0, 3]\nclass = signaling", fillcolor="#dab0f5"] ;
184 -> 185 ;
186 [label="gini = 0.0\nsamples = 5\nvalue = [0, 0, 0, 0, 0, 0, 0, 5, 0, 0]\nclass = signaling", fillcolor="#a339e5"] ;
185 -> 186 ;
187 [label="gini = 0.0\nsamples = 3\nvalue = [0, 0, 0, 0, 0, 0, 0, 0, 0, 3]\nclass = video", fillcolor="#e53958"] ;
185 -> 187 ;
188 [label="src2dst_bytes <= 75151.0\ngini = 0.001\nsamples = 8703\nvalue = [0, 0, 8698, 0, 0, 0, 0, 0, 3, 2]\nclass = bulk", fillcolor="#7be539"] ;
184 -> 188 ;
189 [label="src2dst_packets <= 26.5\ngini = 0.001\nsamples = 8702\nvalue = [0, 0, 8698, 0, 0, 0, 0, 0, 2, 2]\nclass = bulk", fillcolor="#7be539"] ;
188 -> 189 ;
190 [label="dst2src_packets <= 13.0\ngini = 0.5\nsamples = 2\nvalue = [0, 0, 1, 0, 0, 0, 0, 0, 1, 0]\nclass = bulk", fillcolor="#ffffff"] ;
189 -> 190 ;
191 [label="gini = 0.0\nsamples = 1\nvalue = [0, 0, 1, 0, 0, 0, 0, 0, 0, 0]\nclass = bulk", fillcolor="#7be539"] ;
190 -> 191 ;
192 [label="gini = 0.0\nsamples = 1\nvalue = [0, 0, 0, 0, 0, 0, 0, 0, 1, 0]\nclass = transaction", fillcolor="#e539c0"] ;
190 -> 192 ;
193 [label="dst_port <= 140.5\ngini = 0.001\nsamples = 8700\nvalue = [0, 0, 8697, 0, 0, 0, 0, 0, 1, 2]\nclass = bulk", fillcolor="#7be539"] ;
189 -> 193 ;
194 [label="src_port <= 54342.0\ngini = 0.245\nsamples = 7\nvalue = [0, 0, 6, 0, 0, 0, 0, 0, 1, 0]\nclass = bulk", fillcolor="#91e95a"] ;
193 -> 194 ;
195 [label="gini = 0.0\nsamples = 1\nvalue = [0, 0, 0, 0, 0, 0, 0, 0, 1, 0]\nclass = transaction", fillcolor="#e539c0"] ;
194 -> 195 ;
196 [label="gini = 0.0\nsamples = 6\nvalue = [0, 0, 6, 0, 0, 0, 0, 0, 0, 0]\nclass = bulk", fillcolor="#7be539"] ;
194 -> 196 ;
197 [label="dst2src_bytes <= 214247.5\ngini = 0.0\nsamples = 8693\nvalue = [0, 0, 8691, 0, 0, 0, 0, 0, 0, 2]\nclass = bulk", fillcolor="#7be539"] ;
193 -> 197 ;
198 [label="src2dst_bytes <= 7110.0\ngini = 0.0\nsamples = 8308\nvalue = [0, 0, 8307, 0, 0, 0, 0, 0, 0, 1]\nclass = bulk", fillcolor="#7be539"] ;
197 -> 198 ;
199 [label="gini = 0.0\nsamples = 6870\nvalue = [0, 0, 6870, 0, 0, 0, 0, 0, 0, 0]\nclass = bulk", fillcolor="#7be539"] ;
198 -> 199 ;
200 [label="src2dst_bytes <= 7226.5\ngini = 0.001\nsamples = 1438\nvalue = [0, 0, 1437, 0, 0, 0, 0, 0, 0, 1]\nclass = bulk", fillcolor="#7be539"] ;
198 -> 200 ;
201 [label="gini = 0.0\nsamples = 1\nvalue = [0, 0, 0, 0, 0, 0, 0, 0, 0, 1]\nclass = video", fillcolor="#e53958"] ;
200 -> 201 ;
202 [label="gini = 0.0\nsamples = 1437\nvalue = [0, 0, 1437, 0, 0, 0, 0, 0, 0, 0]\nclass = bulk", fillcolor="#7be539"] ;
200 -> 202 ;
203 [label="dst2src_bytes <= 214468.5\ngini = 0.005\nsamples = 385\nvalue = [0, 0, 384, 0, 0, 0, 0, 0, 0, 1]\nclass = bulk", fillcolor="#7be53a"] ;
197 -> 203 ;
204 [label="gini = 0.0\nsamples = 1\nvalue = [0, 0, 0, 0, 0, 0, 0, 0, 0, 1]\nclass = video", fillcolor="#e53958"] ;
203 -> 204 ;
205 [label="gini = 0.0\nsamples = 384\nvalue = [0, 0, 384, 0, 0, 0, 0, 0, 0, 0]\nclass = bulk", fillcolor="#7be539"] ;
203 -> 205 ;
206 [label="gini = 0.0\nsamples = 1\nvalue = [0, 0, 0, 0, 0, 0, 0, 0, 1, 0]\nclass = transaction", fillcolor="#e539c0"] ;
188 -> 206 ;
207 [label="src2dst_bytes <= 2531.5\ngini = 0.623\nsamples = 47248\nvalue = [115, 0, 5484, 17, 19, 867, 592, 339, 16894, 22921]\nclass = video", fillcolor="#fad8de"] ;
183 -> 207 ;
208 [label="dst2src_bytes <= 792.5\ngini = 0.435\nsamples = 26012\nvalue = [42, 0, 2364, 16, 3, 49, 87, 339, 4156, 18956]\nclass = video", fillcolor="#ed798e"] ;
207 -> 208 ;
209 [label="src_port <= 51368.5\ngini = 0.591\nsamples = 6140\nvalue = [39.0, 0.0, 2243.0, 15.0, 3.0, 48.0, 4.0, 321.0, 3198.0\n269.0]\nclass = transaction", fillcolor="#f9cef0"] ;
208 -> 209 ;
210 [label="src_port <= 50493.0\ngini = 0.381\nsamples = 2658\nvalue = [10.0, 0.0, 2046.0, 12.0, 3.0, 2.0, 0.0, 173.0, 399.0\n13.0]\nclass = bulk", fillcolor="#9fec6f"] ;
209 -> 210 ;
211 [label="protocol <= 6.5\ngini = 0.515\nsamples = 503\nvalue = [9.0, 0.0, 0.0, 12.0, 3.0, 2.0, 0.0, 173.0, 304.0\n0.0]\nclass = transaction", fillcolor="#f5b0e6"] ;
210 -> 211 ;
212 [label="dst_port <= 484.0\ngini = 0.038\nsamples = 310\nvalue = [6, 0, 0, 0, 0, 0, 0, 0, 304, 0]\nclass = transaction", fillcolor="#e63dc1"] ;
211 -> 212 ;
213 [label="dst_port <= 431.0\ngini = 0.019\nsamples = 307\nvalue = [3.0, 0.0, 0.0, 0.0, 0.0, 0.0, 0.0, 0.0, 304.0, 0.0]\nclass = transaction", fillcolor="#e53bc1"] ;
212 -> 213 ;
214 [label="gini = 0.0\nsamples = 2\nvalue = [2, 0, 0, 0, 0, 0, 0, 0, 0, 0]\nclass = OAM", fillcolor="#e58139"] ;
213 -> 214 ;
215 [label="dst2src_bytes <= 243.5\ngini = 0.007\nsamples = 305\nvalue = [1, 0, 0, 0, 0, 0, 0, 0, 304, 0]\nclass = transaction", fillcolor="#e53ac0"] ;
213 -> 215 ;
216 [label="gini = 0.0\nsamples = 278\nvalue = [0, 0, 0, 0, 0, 0, 0, 0, 278, 0]\nclass = transaction", fillcolor="#e539c0"] ;
215 -> 216 ;
217 [label="gini = 0.071\nsamples = 27\nvalue = [1, 0, 0, 0, 0, 0, 0, 0, 26, 0]\nclass = transaction", fillcolor="#e641c2"] ;
215 -> 217 ;
218 [label="gini = 0.0\nsamples = 3\nvalue = [3, 0, 0, 0, 0, 0, 0, 0, 0, 0]\nclass = OAM", fillcolor="#e58139"] ;
212 -> 218 ;
219 [label="src_port <= 25355.0\ngini = 0.192\nsamples = 193\nvalue = [3, 0, 0, 12, 3, 2, 0, 173, 0, 0]\nclass = signaling", fillcolor="#ad4fe8"] ;
211 -> 219 ;
220 [label="src2dst_packets <= 6.0\ngini = 0.457\nsamples = 17\nvalue = [0, 0, 0, 12, 3, 2, 0, 0, 0, 0]\nclass = control", fillcolor="#80ee98"] ;
219 -> 220 ;
221 [label="gini = 0.0\nsamples = 12\nvalue = [0, 0, 0, 12, 0, 0, 0, 0, 0, 0]\nclass = control", fillcolor="#39e55e"] ;
220 -> 221 ;
222 [label="src_port <= 8665.0\ngini = 0.48\nsamples = 5\nvalue = [0, 0, 0, 0, 3, 2, 0, 0, 0, 0]\nclass = critical", fillcolor="#bdf6ec"] ;
220 -> 222 ;
223 [label="gini = 0.0\nsamples = 3\nvalue = [0, 0, 0, 0, 3, 0, 0, 0, 0, 0]\nclass = critical", fillcolor="#39e5c5"] ;
222 -> 223 ;
224 [label="gini = 0.0\nsamples = 2\nvalue = [0, 0, 0, 0, 0, 2, 0, 0, 0, 0]\nclass = default", fillcolor="#399de5"] ;
222 -> 224 ;
225 [label="protocol <= 13.0\ngini = 0.034\nsamples = 176\nvalue = [3, 0, 0, 0, 0, 0, 0, 173, 0, 0]\nclass = signaling", fillcolor="#a53ce5"] ;
219 -> 225 ;
226 [label="gini = 0.0\nsamples = 3\nvalue = [3, 0, 0, 0, 0, 0, 0, 0, 0, 0]\nclass = OAM", fillcolor="#e58139"] ;
225 -> 226 ;
227 [label="gini = 0.0\nsamples = 173\nvalue = [0, 0, 0, 0, 0, 0, 0, 173, 0, 0]\nclass = signaling", fillcolor="#a339e5"] ;
225 -> 227 ;
228 [label="src2dst_packets <= 21.5\ngini = 0.097\nsamples = 2155\nvalue = [1, 0, 2046, 0, 0, 0, 0, 0, 95, 13]\nclass = bulk", fillcolor="#82e643"] ;
210 -> 228 ;
229 [label="dst2src_packets <= 1.0\ngini = 0.053\nsamples = 2023\nvalue = [1.0, 0.0, 1968.0, 0.0, 0.0, 0.0, 0.0, 0.0, 41.0\n13.0]\nclass = bulk", fillcolor="#7fe63e"] ;
228 -> 229 ;
230 [label="src2dst_bytes <= 650.0\ngini = 0.038\nsamples = 2007\nvalue = [0, 0, 1968, 0, 0, 0, 0, 0, 39, 0]\nclass = bulk", fillcolor="#7ee63d"] ;
229 -> 230 ;
231 [label="gini = 0.0\nsamples = 10\nvalue = [0, 0, 0, 0, 0, 0, 0, 0, 10, 0]\nclass = transaction", fillcolor="#e539c0"] ;
230 -> 231 ;
232 [label="src_port <= 50589.0\ngini = 0.029\nsamples = 1997\nvalue = [0, 0, 1968, 0, 0, 0, 0, 0, 29, 0]\nclass = bulk", fillcolor="#7de53c"] ;
230 -> 232 ;
233 [label="gini = 0.0\nsamples = 1736\nvalue = [0, 0, 1736, 0, 0, 0, 0, 0, 0, 0]\nclass = bulk", fillcolor="#7be539"] ;
232 -> 233 ;
234 [label="gini = 0.198\nsamples = 261\nvalue = [0, 0, 232, 0, 0, 0, 0, 0, 29, 0]\nclass = bulk", fillcolor="#8ce852"] ;
232 -> 234 ;
235 [label="src2dst_packets <= 11.0\ngini = 0.32\nsamples = 16\nvalue = [1, 0, 0, 0, 0, 0, 0, 0, 2, 13]\nclass = video", fillcolor="#eb637c"] ;
229 -> 235 ;
236 [label="dst2src_bytes <= 385.5\ngini = 0.444\nsamples = 3\nvalue = [1, 0, 0, 0, 0, 0, 0, 0, 2, 0]\nclass = transaction", fillcolor="#f29ce0"] ;
235 -> 236 ;
237 [label="gini = 0.0\nsamples = 1\nvalue = [1, 0, 0, 0, 0, 0, 0, 0, 0, 0]\nclass = OAM", fillcolor="#e58139"] ;
236 -> 237 ;
238 [label="gini = 0.0\nsamples = 2\nvalue = [0, 0, 0, 0, 0, 0, 0, 0, 2, 0]\nclass = transaction", fillcolor="#e539c0"] ;
236 -> 238 ;
239 [label="gini = 0.0\nsamples = 13\nvalue = [0, 0, 0, 0, 0, 0, 0, 0, 0, 13]\nclass = video", fillcolor="#e53958"] ;
235 -> 239 ;
240 [label="src2dst_bytes <= 1789.0\ngini = 0.483\nsamples = 132\nvalue = [0, 0, 78, 0, 0, 0, 0, 0, 54, 0]\nclass = bulk", fillcolor="#d6f7c2"] ;
228 -> 240 ;
241 [label="gini = 0.0\nsamples = 53\nvalue = [0, 0, 0, 0, 0, 0, 0, 0, 53, 0]\nclass = transaction", fillcolor="#e539c0"] ;
240 -> 241 ;
242 [label="src2dst_packets <= 30.0\ngini = 0.025\nsamples = 79\nvalue = [0, 0, 78, 0, 0, 0, 0, 0, 1, 0]\nclass = bulk", fillcolor="#7de53c"] ;
240 -> 242 ;
243 [label="gini = 0.0\nsamples = 78\nvalue = [0, 0, 78, 0, 0, 0, 0, 0, 0, 0]\nclass = bulk", fillcolor="#7be539"] ;
242 -> 243 ;
244 [label="gini = 0.0\nsamples = 1\nvalue = [0, 0, 0, 0, 0, 0, 0, 0, 1, 0]\nclass = transaction", fillcolor="#e539c0"] ;
242 -> 244 ;
245 [label="dst_port <= 444.0\ngini = 0.343\nsamples = 3482\nvalue = [29, 0, 197, 3, 0, 46, 4, 148, 2799, 256]\nclass = transaction", fillcolor="#eb63cd"] ;
209 -> 245 ;
246 [label="src2dst_bytes <= 1688.5\ngini = 0.233\nsamples = 3210\nvalue = [5, 0, 65, 0, 0, 41, 0, 44, 2799, 256]\nclass = transaction", fillcolor="#e955c9"] ;
245 -> 246 ;
247 [label="dst_port <= 442.5\ngini = 0.152\nsamples = 3035\nvalue = [4.0, 0.0, 51.0, 0.0, 0.0, 41.0, 0.0, 44.0, 2791.0\n104.0]\nclass = transaction", fillcolor="#e749c5"] ;
246 -> 247 ;
248 [label="src2dst_packets <= 13.0\ngini = 0.742\nsamples = 144\nvalue = [4, 0, 51, 0, 0, 20, 0, 44, 6, 19]\nclass = bulk", fillcolor="#f6fdf1"] ;
247 -> 248 ;
249 [label="protocol <= 15.5\ngini = 0.677\nsamples = 92\nvalue = [4, 0, 0, 0, 0, 20, 0, 44, 5, 19]\nclass = signaling", fillcolor="#e0bdf6"] ;
248 -> 249 ;
250 [label="gini = 0.655\nsamples = 47\nvalue = [4, 0, 0, 0, 0, 19, 0, 0, 5, 19]\nclass = default", fillcolor="#ffffff"] ;
249 -> 250 ;
251 [label="gini = 0.043\nsamples = 45\nvalue = [0, 0, 0, 0, 0, 1, 0, 44, 0, 0]\nclass = signaling", fillcolor="#a53de6"] ;
249 -> 251 ;
252 [label="dst2src_packets <= 1.5\ngini = 0.038\nsamples = 52\nvalue = [0, 0, 51, 0, 0, 0, 0, 0, 1, 0]\nclass = bulk", fillcolor="#7ee63d"] ;
248 -> 252 ;
253 [label="gini = 0.0\nsamples = 51\nvalue = [0, 0, 51, 0, 0, 0, 0, 0, 0, 0]\nclass = bulk", fillcolor="#7be539"] ;
252 -> 253 ;
254 [label="gini = 0.0\nsamples = 1\nvalue = [0, 0, 0, 0, 0, 0, 0, 0, 1, 0]\nclass = transaction", fillcolor="#e539c0"] ;
252 -> 254 ;
255 [label="dst2src_bytes <= 375.0\ngini = 0.071\nsamples = 2891\nvalue = [0, 0, 0, 0, 0, 21, 0, 0, 2785, 85]\nclass = transaction", fillcolor="#e640c2"] ;
247 -> 255 ;
256 [label="protocol <= 11.5\ngini = 0.005\nsamples = 2600\nvalue = [0.0, 0.0, 0.0, 0.0, 0.0, 6.0, 0.0, 0.0, 2594.0, 0.0]\nclass = transaction", fillcolor="#e539c0"] ;
255 -> 256 ;
257 [label="gini = 0.0\nsamples = 2594\nvalue = [0, 0, 0, 0, 0, 0, 0, 0, 2594, 0]\nclass = transaction", fillcolor="#e539c0"] ;
256 -> 257 ;
258 [label="gini = 0.0\nsamples = 6\nvalue = [0, 0, 0, 0, 0, 6, 0, 0, 0, 0]\nclass = default", fillcolor="#399de5"] ;
256 -> 258 ;
259 [label="src_port <= 53708.5\ngini = 0.481\nsamples = 291\nvalue = [0, 0, 0, 0, 0, 15, 0, 0, 191, 85]\nclass = transaction", fillcolor="#f299df"] ;
255 -> 259 ;
260 [label="gini = 0.188\nsamples = 95\nvalue = [0, 0, 0, 0, 0, 0, 0, 0, 10, 85]\nclass = video", fillcolor="#e8506c"] ;
259 -> 260 ;
261 [label="gini = 0.141\nsamples = 196\nvalue = [0, 0, 0, 0, 0, 15, 0, 0, 181, 0]\nclass = transaction", fillcolor="#e749c5"] ;
259 -> 261 ;
262 [label="dst2src_packets <= 3.0\ngini = 0.237\nsamples = 175\nvalue = [1, 0, 14, 0, 0, 0, 0, 0, 8, 152]\nclass = video", fillcolor="#e95570"] ;
246 -> 262 ;
263 [label="dst_port <= 421.0\ngini = 0.219\nsamples = 16\nvalue = [0, 0, 14, 0, 0, 0, 0, 0, 2, 0]\nclass = bulk", fillcolor="#8ee955"] ;
262 -> 263 ;
264 [label="gini = 0.0\nsamples = 14\nvalue = [0, 0, 14, 0, 0, 0, 0, 0, 0, 0]\nclass = bulk", fillcolor="#7be539"] ;
263 -> 264 ;
265 [label="gini = 0.0\nsamples = 2\nvalue = [0, 0, 0, 0, 0, 0, 0, 0, 2, 0]\nclass = transaction", fillcolor="#e539c0"] ;
263 -> 265 ;
266 [label="src_port <= 55008.5\ngini = 0.085\nsamples = 159\nvalue = [1, 0, 0, 0, 0, 0, 0, 0, 6, 152]\nclass = video", fillcolor="#e64260"] ;
262 -> 266 ;
267 [label="gini = 0.0\nsamples = 152\nvalue = [0, 0, 0, 0, 0, 0, 0, 0, 0, 152]\nclass = video", fillcolor="#e53958"] ;
266 -> 267 ;
268 [label="dst2src_bytes <= 726.0\ngini = 0.245\nsamples = 7\nvalue = [1, 0, 0, 0, 0, 0, 0, 0, 6, 0]\nclass = transaction", fillcolor="#e95acb"] ;
266 -> 268 ;
269 [label="gini = 0.0\nsamples = 1\nvalue = [1, 0, 0, 0, 0, 0, 0, 0, 0, 0]\nclass = OAM", fillcolor="#e58139"] ;
268 -> 269 ;
270 [label="gini = 0.0\nsamples = 6\nvalue = [0, 0, 0, 0, 0, 0, 0, 0, 6, 0]\nclass = transaction", fillcolor="#e539c0"] ;
268 -> 270 ;
271 [label="protocol <= 7.0\ngini = 0.61\nsamples = 272\nvalue = [24, 0, 132, 3, 0, 5, 4, 104, 0, 0]\nclass = bulk", fillcolor="#e9fbde"] ;
245 -> 271 ;
272 [label="src2dst_bytes <= 1111.5\ngini = 0.057\nsamples = 136\nvalue = [0, 0, 132, 0, 0, 0, 4, 0, 0, 0]\nclass = bulk", fillcolor="#7fe63f"] ;
271 -> 272 ;
273 [label="gini = 0.0\nsamples = 4\nvalue = [0, 0, 0, 0, 0, 0, 4, 0, 0, 0]\nclass = p2p", fillcolor="#3c39e5"] ;
272 -> 273 ;
274 [label="gini = 0.0\nsamples = 132\nvalue = [0, 0, 132, 0, 0, 0, 0, 0, 0, 0]\nclass = bulk", fillcolor="#7be539"] ;
272 -> 274 ;
275 [label="protocol <= 14.0\ngini = 0.382\nsamples = 136\nvalue = [24, 0, 0, 3, 0, 5, 0, 104, 0, 0]\nclass = signaling", fillcolor="#bd72ec"] ;
271 -> 275 ;
276 [label="gini = 0.0\nsamples = 24\nvalue = [24, 0, 0, 0, 0, 0, 0, 0, 0, 0]\nclass = OAM", fillcolor="#e58139"] ;
275 -> 276 ;
277 [label="dst2src_packets <= 0.5\ngini = 0.135\nsamples = 112\nvalue = [0, 0, 0, 3, 0, 5, 0, 104, 0, 0]\nclass = signaling", fillcolor="#aa48e7"] ;
275 -> 277 ;
278 [label="gini = 0.0\nsamples = 3\nvalue = [0, 0, 0, 0, 0, 3, 0, 0, 0, 0]\nclass = default", fillcolor="#399de5"] ;
277 -> 278 ;
279 [label="dst2src_bytes <= 218.5\ngini = 0.089\nsamples = 109\nvalue = [0, 0, 0, 3, 0, 2, 0, 104, 0, 0]\nclass = signaling", fillcolor="#a742e6"] ;
277 -> 279 ;
280 [label="gini = 0.055\nsamples = 107\nvalue = [0, 0, 0, 3, 0, 0, 0, 104, 0, 0]\nclass = signaling", fillcolor="#a63fe6"] ;
279 -> 280 ;
281 [label="gini = 0.0\nsamples = 2\nvalue = [0, 0, 0, 0, 0, 2, 0, 0, 0, 0]\nclass = default", fillcolor="#399de5"] ;
279 -> 281 ;
282 [label="src2dst_bytes <= 1404.5\ngini = 0.113\nsamples = 19872\nvalue = [3, 0, 121, 1, 0, 1, 83, 18, 958, 18687]\nclass = video", fillcolor="#e74562"] ;
208 -> 282 ;
283 [label="dst_port <= 449.0\ngini = 0.408\nsamples = 256\nvalue = [0, 0, 0, 0, 0, 1, 65, 2, 186, 2]\nclass = transaction", fillcolor="#ef82d7"] ;
282 -> 283 ;
284 [label="dst_port <= 442.5\ngini = 0.218\nsamples = 212\nvalue = [0, 0, 0, 0, 0, 1, 23, 0, 186, 2]\nclass = transaction", fillcolor="#e954c9"] ;
283 -> 284 ;
285 [label="dst2src_packets <= 10.5\ngini = 0.383\nsamples = 31\nvalue = [0, 0, 0, 0, 0, 0, 23, 0, 8, 0]\nclass = p2p", fillcolor="#807eee"] ;
284 -> 285 ;
286 [label="dst2src_packets <= 9.0\ngini = 0.159\nsamples = 23\nvalue = [0, 0, 0, 0, 0, 0, 21, 0, 2, 0]\nclass = p2p", fillcolor="#4f4ce7"] ;
285 -> 286 ;
287 [label="dst2src_bytes <= 1319.0\ngini = 0.444\nsamples = 3\nvalue = [0, 0, 0, 0, 0, 0, 1, 0, 2, 0]\nclass = transaction", fillcolor="#f29ce0"] ;
286 -> 287 ;
288 [label="gini = 0.0\nsamples = 1\nvalue = [0, 0, 0, 0, 0, 0, 1, 0, 0, 0]\nclass = p2p", fillcolor="#3c39e5"] ;
287 -> 288 ;
289 [label="gini = 0.0\nsamples = 2\nvalue = [0, 0, 0, 0, 0, 0, 0, 0, 2, 0]\nclass = transaction", fillcolor="#e539c0"] ;
287 -> 289 ;
290 [label="gini = 0.0\nsamples = 20\nvalue = [0, 0, 0, 0, 0, 0, 20, 0, 0, 0]\nclass = p2p", fillcolor="#3c39e5"] ;
286 -> 290 ;
291 [label="src2dst_bytes <= 1163.0\ngini = 0.375\nsamples = 8\nvalue = [0, 0, 0, 0, 0, 0, 2, 0, 6, 0]\nclass = transaction", fillcolor="#ee7bd5"] ;
285 -> 291 ;
292 [label="src_port <= 54010.5\ngini = 0.444\nsamples = 3\nvalue = [0, 0, 0, 0, 0, 0, 2, 0, 1, 0]\nclass = p2p", fillcolor="#9e9cf2"] ;
291 -> 292 ;
293 [label="gini = 0.0\nsamples = 1\nvalue = [0, 0, 0, 0, 0, 0, 0, 0, 1, 0]\nclass = transaction", fillcolor="#e539c0"] ;
292 -> 293 ;
294 [label="gini = 0.0\nsamples = 2\nvalue = [0, 0, 0, 0, 0, 0, 2, 0, 0, 0]\nclass = p2p", fillcolor="#3c39e5"] ;
292 -> 294 ;
295 [label="gini = 0.0\nsamples = 5\nvalue = [0, 0, 0, 0, 0, 0, 0, 0, 5, 0]\nclass = transaction", fillcolor="#e539c0"] ;
291 -> 295 ;
296 [label="protocol <= 11.5\ngini = 0.033\nsamples = 181\nvalue = [0, 0, 0, 0, 0, 1, 0, 0, 178, 2]\nclass = transaction", fillcolor="#e53cc1"] ;
284 -> 296 ;
297 [label="dst2src_packets <= 40.5\ngini = 0.022\nsamples = 180\nvalue = [0, 0, 0, 0, 0, 0, 0, 0, 178, 2]\nclass = transaction", fillcolor="#e53bc1"] ;
296 -> 297 ;
298 [label="src2dst_bytes <= 1401.0\ngini = 0.011\nsamples = 179\nvalue = [0, 0, 0, 0, 0, 0, 0, 0, 178, 1]\nclass = transaction", fillcolor="#e53ac0"] ;
297 -> 298 ;
299 [label="gini = 0.0\nsamples = 175\nvalue = [0, 0, 0, 0, 0, 0, 0, 0, 175, 0]\nclass = transaction", fillcolor="#e539c0"] ;
298 -> 299 ;
300 [label="gini = 0.375\nsamples = 4\nvalue = [0, 0, 0, 0, 0, 0, 0, 0, 3, 1]\nclass = transaction", fillcolor="#ee7bd5"] ;
298 -> 300 ;
301 [label="gini = 0.0\nsamples = 1\nvalue = [0, 0, 0, 0, 0, 0, 0, 0, 0, 1]\nclass = video", fillcolor="#e53958"] ;
297 -> 301 ;
302 [label="gini = 0.0\nsamples = 1\nvalue = [0, 0, 0, 0, 0, 1, 0, 0, 0, 0]\nclass = default", fillcolor="#399de5"] ;
296 -> 302 ;
303 [label="protocol <= 11.5\ngini = 0.087\nsamples = 44\nvalue = [0, 0, 0, 0, 0, 0, 42, 2, 0, 0]\nclass = p2p", fillcolor="#4542e6"] ;
283 -> 303 ;
304 [label="gini = 0.0\nsamples = 42\nvalue = [0, 0, 0, 0, 0, 0, 42, 0, 0, 0]\nclass = p2p", fillcolor="#3c39e5"] ;
303 -> 304 ;
305 [label="gini = 0.0\nsamples = 2\nvalue = [0, 0, 0, 0, 0, 0, 0, 2, 0, 0]\nclass = signaling", fillcolor="#a339e5"] ;
303 -> 305 ;
306 [label="src2dst_packets <= 15.5\ngini = 0.091\nsamples = 19616\nvalue = [3.0, 0.0, 121.0, 1.0, 0.0, 0.0, 18.0, 16.0, 772.0\n18685.0]\nclass = video", fillcolor="#e64360"] ;
282 -> 306 ;
307 [label="src_port <= 49630.0\ngini = 0.028\nsamples = 17559\nvalue = [3, 0, 0, 0, 0, 0, 0, 16, 228, 17312]\nclass = video", fillcolor="#e53c5a"] ;
306 -> 307 ;
308 [label="protocol <= 11.5\ngini = 0.48\nsamples = 40\nvalue = [0, 0, 0, 0, 0, 0, 0, 16, 24, 0]\nclass = transaction", fillcolor="#f6bdea"] ;
307 -> 308 ;
309 [label="gini = 0.0\nsamples = 24\nvalue = [0, 0, 0, 0, 0, 0, 0, 0, 24, 0]\nclass = transaction", fillcolor="#e539c0"] ;
308 -> 309 ;
310 [label="gini = 0.0\nsamples = 16\nvalue = [0, 0, 0, 0, 0, 0, 0, 16, 0, 0]\nclass = signaling", fillcolor="#a339e5"] ;
308 -> 310 ;
311 [label="dst2src_bytes <= 13249.0\ngini = 0.023\nsamples = 17519\nvalue = [3, 0, 0, 0, 0, 0, 0, 0, 204, 17312]\nclass = video", fillcolor="#e53b5a"] ;
307 -> 311 ;
312 [label="src2dst_packets <= 13.5\ngini = 0.021\nsamples = 17484\nvalue = [3, 0, 0, 0, 0, 0, 0, 0, 179, 17302]\nclass = video", fillcolor="#e53b5a"] ;
311 -> 312 ;
313 [label="src2dst_bytes <= 2482.5\ngini = 0.009\nsamples = 16142\nvalue = [3, 0, 0, 0, 0, 0, 0, 0, 68, 16071]\nclass = video", fillcolor="#e53a59"] ;
312 -> 313 ;
314 [label="gini = 0.008\nsamples = 16136\nvalue = [0, 0, 0, 0, 0, 0, 0, 0, 66, 16070]\nclass = video", fillcolor="#e53a59"] ;
313 -> 314 ;
315 [label="gini = 0.611\nsamples = 6\nvalue = [3, 0, 0, 0, 0, 0, 0, 0, 2, 1]\nclass = OAM", fillcolor="#f8e0ce"] ;
313 -> 315 ;
316 [label="src2dst_bytes <= 1526.0\ngini = 0.152\nsamples = 1342\nvalue = [0.0, 0.0, 0.0, 0.0, 0.0, 0.0, 0.0, 0.0, 111.0\n1231.0]\nclass = video", fillcolor="#e74b67"] ;
312 -> 316 ;
317 [label="gini = 0.0\nsamples = 28\nvalue = [0, 0, 0, 0, 0, 0, 0, 0, 28, 0]\nclass = transaction", fillcolor="#e539c0"] ;
316 -> 317 ;
318 [label="gini = 0.118\nsamples = 1314\nvalue = [0, 0, 0, 0, 0, 0, 0, 0, 83, 1231]\nclass = video", fillcolor="#e74663"] ;
316 -> 318 ;
319 [label="dst2src_packets <= 48.0\ngini = 0.408\nsamples = 35\nvalue = [0, 0, 0, 0, 0, 0, 0, 0, 25, 10]\nclass = transaction", fillcolor="#ef88d9"] ;
311 -> 319 ;
320 [label="gini = 0.0\nsamples = 25\nvalue = [0, 0, 0, 0, 0, 0, 0, 0, 25, 0]\nclass = transaction", fillcolor="#e539c0"] ;
319 -> 320 ;
321 [label="gini = 0.0\nsamples = 10\nvalue = [0, 0, 0, 0, 0, 0, 0, 0, 0, 10]\nclass = video", fillcolor="#e53958"] ;
319 -> 321 ;
322 [label="dst2src_bytes <= 12094.5\ngini = 0.481\nsamples = 2057\nvalue = [0, 0, 121, 1, 0, 0, 18, 0, 544, 1373]\nclass = video", fillcolor="#f193a3"] ;
306 -> 322 ;
323 [label="src2dst_bytes <= 2093.5\ngini = 0.421\nsamples = 1863\nvalue = [0, 0, 121, 1, 0, 0, 6, 0, 372, 1363]\nclass = video", fillcolor="#ee7b90"] ;
322 -> 323 ;
324 [label="dst2src_bytes <= 2660.0\ngini = 0.646\nsamples = 240\nvalue = [0, 0, 66, 1, 0, 0, 3, 0, 113, 57]\nclass = transaction", fillcolor="#f8caee"] ;
323 -> 324 ;
325 [label="src_port <= 55864.5\ngini = 0.407\nsamples = 89\nvalue = [0, 0, 66, 1, 0, 0, 0, 0, 18, 4]\nclass = bulk", fillcolor="#a6ed79"] ;
324 -> 325 ;
326 [label="gini = 0.254\nsamples = 77\nvalue = [0, 0, 66, 1, 0, 0, 0, 0, 8, 2]\nclass = bulk", fillcolor="#90e959"] ;
325 -> 326 ;
327 [label="gini = 0.278\nsamples = 12\nvalue = [0, 0, 0, 0, 0, 0, 0, 0, 10, 2]\nclass = transaction", fillcolor="#ea61cd"] ;
325 -> 327 ;
328 [label="dst2src_bytes <= 10681.0\ngini = 0.481\nsamples = 151\nvalue = [0, 0, 0, 0, 0, 0, 3, 0, 95, 53]\nclass = transaction", fillcolor="#f4aae4"] ;
324 -> 328 ;
329 [label="gini = 0.081\nsamples = 71\nvalue = [0, 0, 0, 0, 0, 0, 3, 0, 68, 0]\nclass = transaction", fillcolor="#e642c3"] ;
328 -> 329 ;
330 [label="gini = 0.447\nsamples = 80\nvalue = [0, 0, 0, 0, 0, 0, 0, 0, 27, 53]\nclass = video", fillcolor="#f29ead"] ;
328 -> 330 ;
331 [label="src2dst_packets <= 26.5\ngini = 0.326\nsamples = 1623\nvalue = [0, 0, 55, 0, 0, 0, 3, 0, 259, 1306]\nclass = video", fillcolor="#eb677f"] ;
323 -> 331 ;
332 [label="dst2src_bytes <= 11316.5\ngini = 0.276\nsamples = 1564\nvalue = [0, 0, 0, 0, 0, 0, 3, 0, 255, 1306]\nclass = video", fillcolor="#ea6079"] ;
331 -> 332 ;
333 [label="gini = 0.411\nsamples = 804\nvalue = [0.0, 0.0, 0.0, 0.0, 0.0, 0.0, 3.0, 0.0, 227.0, 574.0]\nclass = video", fillcolor="#ef889b"] ;
332 -> 333 ;
334 [label="gini = 0.071\nsamples = 760\nvalue = [0.0, 0.0, 0.0, 0.0, 0.0, 0.0, 0.0, 0.0, 28.0, 732.0]\nclass = video", fillcolor="#e6415e"] ;
332 -> 334 ;
335 [label="dst_port <= 387.5\ngini = 0.126\nsamples = 59\nvalue = [0, 0, 55, 0, 0, 0, 0, 0, 4, 0]\nclass = bulk", fillcolor="#85e747"] ;
331 -> 335 ;
336 [label="gini = 0.0\nsamples = 55\nvalue = [0, 0, 55, 0, 0, 0, 0, 0, 0, 0]\nclass = bulk", fillcolor="#7be539"] ;
335 -> 336 ;
337 [label="gini = 0.0\nsamples = 4\nvalue = [0, 0, 0, 0, 0, 0, 0, 0, 4, 0]\nclass = transaction", fillcolor="#e539c0"] ;
335 -> 337 ;
338 [label="dst_port <= 400.0\ngini = 0.207\nsamples = 194\nvalue = [0, 0, 0, 0, 0, 0, 12, 0, 172, 10]\nclass = transaction", fillcolor="#e851c8"] ;
322 -> 338 ;
339 [label="src_port <= 59011.5\ngini = 0.337\nsamples = 14\nvalue = [0, 0, 0, 0, 0, 0, 11, 0, 3, 0]\nclass = p2p", fillcolor="#716fec"] ;
338 -> 339 ;
340 [label="gini = 0.0\nsamples = 11\nvalue = [0, 0, 0, 0, 0, 0, 11, 0, 0, 0]\nclass = p2p", fillcolor="#3c39e5"] ;
339 -> 340 ;
341 [label="gini = 0.0\nsamples = 3\nvalue = [0, 0, 0, 0, 0, 0, 0, 0, 3, 0]\nclass = transaction", fillcolor="#e539c0"] ;
339 -> 341 ;
342 [label="dst2src_packets <= 31.5\ngini = 0.115\nsamples = 180\nvalue = [0, 0, 0, 0, 0, 0, 1, 0, 169, 10]\nclass = transaction", fillcolor="#e746c4"] ;
338 -> 342 ;
343 [label="dst_port <= 526.5\ngini = 0.024\nsamples = 168\nvalue = [0, 0, 0, 0, 0, 0, 1, 0, 166, 1]\nclass = transaction", fillcolor="#e53bc1"] ;
342 -> 343 ;
344 [label="gini = 0.012\nsamples = 167\nvalue = [0, 0, 0, 0, 0, 0, 0, 0, 166, 1]\nclass = transaction", fillcolor="#e53ac0"] ;
343 -> 344 ;
345 [label="gini = 0.0\nsamples = 1\nvalue = [0, 0, 0, 0, 0, 0, 1, 0, 0, 0]\nclass = p2p", fillcolor="#3c39e5"] ;
343 -> 345 ;
346 [label="dst2src_bytes <= 22724.5\ngini = 0.375\nsamples = 12\nvalue = [0, 0, 0, 0, 0, 0, 0, 0, 3, 9]\nclass = video", fillcolor="#ee7b90"] ;
342 -> 346 ;
347 [label="gini = 0.0\nsamples = 9\nvalue = [0, 0, 0, 0, 0, 0, 0, 0, 0, 9]\nclass = video", fillcolor="#e53958"] ;
346 -> 347 ;
348 [label="gini = 0.0\nsamples = 3\nvalue = [0, 0, 0, 0, 0, 0, 0, 0, 3, 0]\nclass = transaction", fillcolor="#e539c0"] ;
346 -> 348 ;
349 [label="dst_port <= 443.5\ngini = 0.582\nsamples = 21236\nvalue = [73.0, 0.0, 3120.0, 1.0, 16.0, 818.0, 505.0, 0.0\n12738.0, 3965.0]\nclass = transaction", fillcolor="#f29adf"] ;
207 -> 349 ;
350 [label="protocol <= 15.5\ngini = 0.478\nsamples = 18469\nvalue = [22.0, 0.0, 506.0, 0.0, 0.0, 807.0, 474.0, 0.0, 12697.0\n3963.0]\nclass = transaction", fillcolor="#ef88d9"] ;
349 -> 350 ;
351 [label="src2dst_bytes <= 3801.5\ngini = 0.433\nsamples = 17537\nvalue = [22.0, 0.0, 506.0, 0.0, 0.0, 0.0, 474.0, 0.0, 12572.0\n3963.0]\nclass = transaction", fillcolor="#ef81d7"] ;
350 -> 351 ;
352 [label="src2dst_packets <= 27.5\ngini = 0.545\nsamples = 3845\nvalue = [5, 0, 155, 0, 0, 0, 27, 0, 1898, 1760]\nclass = transaction", fillcolor="#fdf2fb"] ;
351 -> 352 ;
353 [label="src_port <= 55801.0\ngini = 0.406\nsamples = 2304\nvalue = [5, 0, 18, 0, 0, 0, 18, 0, 1676, 587]\nclass = transaction", fillcolor="#ef81d7"] ;
352 -> 353 ;
354 [label="dst2src_bytes <= 13642.5\ngini = 0.531\nsamples = 988\nvalue = [2.0, 0.0, 18.0, 0.0, 0.0, 0.0, 14.0, 0.0, 447.0\n507.0]\nclass = video", fillcolor="#fce9ec"] ;
353 -> 354 ;
355 [label="dst2src_bytes <= 11465.5\ngini = 0.492\nsamples = 743\nvalue = [2, 0, 18, 0, 0, 0, 0, 0, 264, 459]\nclass = video", fillcolor="#f4aebb"] ;
354 -> 355 ;
356 [label="gini = 0.482\nsamples = 336\nvalue = [2, 0, 18, 0, 0, 0, 0, 0, 222, 94]\nclass = transaction", fillcolor="#f196de"] ;
355 -> 356 ;
357 [label="gini = 0.185\nsamples = 407\nvalue = [0, 0, 0, 0, 0, 0, 0, 0, 42, 365]\nclass = video", fillcolor="#e8506b"] ;
355 -> 357 ;
358 [label="dst2src_packets <= 50.5\ngini = 0.4\nsamples = 245\nvalue = [0, 0, 0, 0, 0, 0, 14, 0, 183, 48]\nclass = transaction", fillcolor="#ed77d4"] ;
354 -> 358 ;
359 [label="gini = 0.179\nsamples = 196\nvalue = [0, 0, 0, 0, 0, 0, 14, 0, 177, 5]\nclass = transaction", fillcolor="#e84ec7"] ;
358 -> 359 ;
360 [label="gini = 0.215\nsamples = 49\nvalue = [0, 0, 0, 0, 0, 0, 0, 0, 6, 43]\nclass = video", fillcolor="#e9556f"] ;
358 -> 360 ;
361 [label="src2dst_packets <= 14.5\ngini = 0.124\nsamples = 1316\nvalue = [3, 0, 0, 0, 0, 0, 4, 0, 1229, 80]\nclass = transaction", fillcolor="#e747c4"] ;
353 -> 361 ;
362 [label="src_port <= 58366.0\ngini = 0.417\nsamples = 104\nvalue = [3, 0, 0, 0, 0, 0, 0, 0, 75, 26]\nclass = transaction", fillcolor="#ef83d7"] ;
361 -> 362 ;
363 [label="gini = 0.071\nsamples = 27\nvalue = [0, 0, 0, 0, 0, 0, 0, 0, 1, 26]\nclass = video", fillcolor="#e6415e"] ;
362 -> 363 ;
364 [label="gini = 0.075\nsamples = 77\nvalue = [3, 0, 0, 0, 0, 0, 0, 0, 74, 0]\nclass = transaction", fillcolor="#e641c3"] ;
362 -> 364 ;
365 [label="src2dst_packets <= 26.5\ngini = 0.091\nsamples = 1212\nvalue = [0, 0, 0, 0, 0, 0, 4, 0, 1154, 54]\nclass = transaction", fillcolor="#e643c3"] ;
361 -> 365 ;
366 [label="gini = 0.073\nsamples = 1186\nvalue = [0, 0, 0, 0, 0, 0, 2, 0, 1141, 43]\nclass = transaction", fillcolor="#e641c2"] ;
365 -> 366 ;
367 [label="gini = 0.565\nsamples = 26\nvalue = [0, 0, 0, 0, 0, 0, 2, 0, 13, 11]\nclass = transaction", fillcolor="#fce5f7"] ;
365 -> 367 ;
368 [label="dst_port <= 442.5\ngini = 0.392\nsamples = 1541\nvalue = [0, 0, 137, 0, 0, 0, 9, 0, 222, 1173]\nclass = video", fillcolor="#ec7087"] ;
352 -> 368 ;
369 [label="dst2src_bytes <= 11019.0\ngini = 0.148\nsamples = 149\nvalue = [0, 0, 137, 0, 0, 0, 0, 0, 12, 0]\nclass = bulk", fillcolor="#87e74a"] ;
368 -> 369 ;
370 [label="src2dst_bytes <= 3740.0\ngini = 0.014\nsamples = 138\nvalue = [0, 0, 137, 0, 0, 0, 0, 0, 1, 0]\nclass = bulk", fillcolor="#7ce53a"] ;
369 -> 370 ;
371 [label="gini = 0.0\nsamples = 137\nvalue = [0, 0, 137, 0, 0, 0, 0, 0, 0, 0]\nclass = bulk", fillcolor="#7be539"] ;
370 -> 371 ;
372 [label="gini = 0.0\nsamples = 1\nvalue = [0, 0, 0, 0, 0, 0, 0, 0, 1, 0]\nclass = transaction", fillcolor="#e539c0"] ;
370 -> 372 ;
373 [label="gini = 0.0\nsamples = 11\nvalue = [0, 0, 0, 0, 0, 0, 0, 0, 11, 0]\nclass = transaction", fillcolor="#e539c0"] ;
369 -> 373 ;
374 [label="dst2src_packets <= 31.5\ngini = 0.267\nsamples = 1392\nvalue = [0, 0, 0, 0, 0, 0, 9, 0, 210, 1173]\nclass = video", fillcolor="#ea5e77"] ;
368 -> 374 ;
375 [label="src_port <= 51956.0\ngini = 0.162\nsamples = 1253\nvalue = [0, 0, 0, 0, 0, 0, 5, 0, 106, 1142]\nclass = video", fillcolor="#e84c68"] ;
374 -> 375 ;
376 [label="gini = 0.0\nsamples = 25\nvalue = [0, 0, 0, 0, 0, 0, 0, 0, 25, 0]\nclass = transaction", fillcolor="#e539c0"] ;
375 -> 376 ;
377 [label="gini = 0.131\nsamples = 1228\nvalue = [0, 0, 0, 0, 0, 0, 5, 0, 81, 1142]\nclass = video", fillcolor="#e74865"] ;
375 -> 377 ;
378 [label="src_port <= 55009.0\ngini = 0.39\nsamples = 139\nvalue = [0, 0, 0, 0, 0, 0, 4, 0, 104, 31]\nclass = transaction", fillcolor="#ed79d4"] ;
374 -> 378 ;
379 [label="gini = 0.526\nsamples = 65\nvalue = [0, 0, 0, 0, 0, 0, 2, 0, 34, 29]\nclass = transaction", fillcolor="#fbe4f6"] ;
378 -> 379 ;
380 [label="gini = 0.104\nsamples = 74\nvalue = [0, 0, 0, 0, 0, 0, 2, 0, 70, 2]\nclass = transaction", fillcolor="#e644c4"] ;
378 -> 380 ;
381 [label="src_port <= 53097.0\ngini = 0.365\nsamples = 13692\nvalue = [17, 0, 351, 0, 0, 0, 447, 0, 10674, 2203]\nclass = transaction", fillcolor="#ec6dd1"] ;
351 -> 381 ;
382 [label="src_port <= 51129.0\ngini = 0.606\nsamples = 3065\nvalue = [16.0, 0.0, 0.0, 0.0, 0.0, 0.0, 402.0, 0.0, 1457.0\n1190.0]\nclass = transaction", fillcolor="#fbe3f6"] ;
381 -> 382 ;
383 [label="dst2src_bytes <= 14056.5\ngini = 0.497\nsamples = 1631\nvalue = [16, 0, 0, 0, 0, 0, 359, 0, 1086, 170]\nclass = transaction", fillcolor="#f08edb"] ;
382 -> 383 ;
384 [label="protocol <= 6.5\ngini = 0.036\nsamples = 496\nvalue = [6, 0, 0, 0, 0, 0, 3, 0, 487, 0]\nclass = transaction", fillcolor="#e53dc1"] ;
383 -> 384 ;
385 [label="gini = 0.012\nsamples = 490\nvalue = [0, 0, 0, 0, 0, 0, 3, 0, 487, 0]\nclass = transaction", fillcolor="#e53ac0"] ;
384 -> 385 ;
386 [label="gini = 0.0\nsamples = 6\nvalue = [6, 0, 0, 0, 0, 0, 0, 0, 0, 0]\nclass = OAM", fillcolor="#e58139"] ;
384 -> 386 ;
387 [label="dst2src_packets <= 31.5\ngini = 0.601\nsamples = 1135\nvalue = [10.0, 0.0, 0.0, 0.0, 0.0, 0.0, 356.0, 0.0, 599.0\n170.0]\nclass = transaction", fillcolor="#f7c1eb"] ;
383 -> 387 ;
388 [label="gini = 0.434\nsamples = 496\nvalue = [0, 0, 0, 0, 0, 0, 338, 0, 158, 0]\nclass = p2p", fillcolor="#9796f1"] ;
387 -> 388 ;
389 [label="gini = 0.452\nsamples = 639\nvalue = [10, 0, 0, 0, 0, 0, 18, 0, 441, 170]\nclass = transaction", fillcolor="#f08ddb"] ;
387 -> 389 ;
390 [label="dst2src_bytes <= 13979.5\ngini = 0.426\nsamples = 1434\nvalue = [0, 0, 0, 0, 0, 0, 43, 0, 371, 1020]\nclass = video", fillcolor="#ef8699"] ;
382 -> 390 ;
391 [label="gini = 0.0\nsamples = 126\nvalue = [0, 0, 0, 0, 0, 0, 0, 0, 126, 0]\nclass = transaction", fillcolor="#e539c0"] ;
390 -> 391 ;
392 [label="src2dst_bytes <= 7079.0\ngini = 0.356\nsamples = 1308\nvalue = [0, 0, 0, 0, 0, 0, 43, 0, 245, 1020]\nclass = video", fillcolor="#ec6f85"] ;
390 -> 392 ;
393 [label="gini = 0.109\nsamples = 942\nvalue = [0, 0, 0, 0, 0, 0, 6, 0, 48, 888]\nclass = video", fillcolor="#e74562"] ;
392 -> 393 ;
394 [label="gini = 0.57\nsamples = 366\nvalue = [0.0, 0.0, 0.0, 0.0, 0.0, 0.0, 37.0, 0.0, 197.0\n132.0]\nclass = transaction", fillcolor="#f8c8ee"] ;
392 -> 394 ;
395 [label="dst_port <= 442.5\ngini = 0.238\nsamples = 10627\nvalue = [1, 0, 351, 0, 0, 0, 45, 0, 9217, 1013]\nclass = transaction", fillcolor="#e956c9"] ;
381 -> 395 ;
396 [label="dst2src_bytes <= 31741.0\ngini = 0.606\nsamples = 648\nvalue = [1.0, 0.0, 348.0, 0.0, 0.0, 0.0, 2.0, 0.0, 156.0\n141.0]\nclass = bulk", fillcolor="#cbf5b2"] ;
395 -> 396 ;
397 [label="src2dst_packets <= 38.5\ngini = 0.314\nsamples = 431\nvalue = [1, 0, 348, 0, 0, 0, 1, 0, 79, 2]\nclass = bulk", fillcolor="#9aeb68"] ;
396 -> 397 ;
398 [label="gini = 0.076\nsamples = 51\nvalue = [1, 0, 0, 0, 0, 0, 1, 0, 49, 0]\nclass = transaction", fillcolor="#e641c3"] ;
397 -> 398 ;
399 [label="gini = 0.155\nsamples = 380\nvalue = [0, 0, 348, 0, 0, 0, 0, 0, 30, 2]\nclass = bulk", fillcolor="#87e74b"] ;
397 -> 399 ;
400 [label="src_port <= 56552.5\ngini = 0.464\nsamples = 217\nvalue = [0, 0, 0, 0, 0, 0, 1, 0, 77, 139]\nclass = video", fillcolor="#f3a7b5"] ;
396 -> 400 ;
401 [label="gini = 0.203\nsamples = 157\nvalue = [0, 0, 0, 0, 0, 0, 0, 0, 18, 139]\nclass = video", fillcolor="#e8536e"] ;
400 -> 401 ;
402 [label="gini = 0.033\nsamples = 60\nvalue = [0, 0, 0, 0, 0, 0, 1, 0, 59, 0]\nclass = transaction", fillcolor="#e53cc1"] ;
400 -> 402 ;
403 [label="src_port <= 55414.5\ngini = 0.168\nsamples = 9979\nvalue = [0, 0, 3, 0, 0, 0, 43, 0, 9061, 872]\nclass = transaction", fillcolor="#e84dc6"] ;
395 -> 403 ;
404 [label="src_port <= 54990.5\ngini = 0.304\nsamples = 2650\nvalue = [0, 0, 2, 0, 0, 0, 16, 0, 2159, 473]\nclass = transaction", fillcolor="#eb66ce"] ;
403 -> 404 ;
405 [label="gini = 0.22\nsamples = 2003\nvalue = [0, 0, 1, 0, 0, 0, 13, 0, 1753, 236]\nclass = transaction", fillcolor="#e955c9"] ;
404 -> 405 ;
406 [label="gini = 0.472\nsamples = 647\nvalue = [0, 0, 1, 0, 0, 0, 3, 0, 406, 237]\nclass = transaction", fillcolor="#f4ade5"] ;
404 -> 406 ;
407 [label="src2dst_packets <= 28.5\ngini = 0.11\nsamples = 7329\nvalue = [0, 0, 1, 0, 0, 0, 27, 0, 6902, 399]\nclass = transaction", fillcolor="#e745c4"] ;
403 -> 407 ;
408 [label="gini = 0.009\nsamples = 2887\nvalue = [0, 0, 0, 0, 0, 0, 0, 0, 2874, 13]\nclass = transaction", fillcolor="#e53ac0"] ;
407 -> 408 ;
409 [label="gini = 0.17\nsamples = 4442\nvalue = [0.0, 0.0, 1.0, 0.0, 0.0, 0.0, 27.0, 0.0, 4028.0\n386.0]\nclass = transaction", fillcolor="#e84dc6"] ;
407 -> 409 ;
410 [label="dst2src_bytes <= 6.5\ngini = 0.232\nsamples = 932\nvalue = [0.0, 0.0, 0.0, 0.0, 0.0, 807.0, 0.0, 0.0, 125.0, 0.0]\nclass = default", fillcolor="#58ace9"] ;
350 -> 410 ;
411 [label="src2dst_bytes <= 15877.0\ngini = 0.496\nsamples = 227\nvalue = [0, 0, 0, 0, 0, 103, 0, 0, 124, 0]\nclass = transaction", fillcolor="#fbddf4"] ;
410 -> 411 ;
412 [label="src2dst_bytes <= 10642.0\ngini = 0.031\nsamples = 125\nvalue = [0, 0, 0, 0, 0, 2, 0, 0, 123, 0]\nclass = transaction", fillcolor="#e53cc1"] ;
411 -> 412 ;
413 [label="gini = 0.0\nsamples = 2\nvalue = [0, 0, 0, 0, 0, 2, 0, 0, 0, 0]\nclass = default", fillcolor="#399de5"] ;
412 -> 413 ;
414 [label="gini = 0.0\nsamples = 123\nvalue = [0, 0, 0, 0, 0, 0, 0, 0, 123, 0]\nclass = transaction", fillcolor="#e539c0"] ;
412 -> 414 ;
415 [label="src_port <= 62017.0\ngini = 0.019\nsamples = 102\nvalue = [0, 0, 0, 0, 0, 101, 0, 0, 1, 0]\nclass = default", fillcolor="#3b9ee5"] ;
411 -> 415 ;
416 [label="gini = 0.0\nsamples = 87\nvalue = [0, 0, 0, 0, 0, 87, 0, 0, 0, 0]\nclass = default", fillcolor="#399de5"] ;
415 -> 416 ;
417 [label="src_port <= 62122.5\ngini = 0.124\nsamples = 15\nvalue = [0, 0, 0, 0, 0, 14, 0, 0, 1, 0]\nclass = default", fillcolor="#47a4e7"] ;
415 -> 417 ;
418 [label="gini = 0.0\nsamples = 1\nvalue = [0, 0, 0, 0, 0, 0, 0, 0, 1, 0]\nclass = transaction", fillcolor="#e539c0"] ;
417 -> 418 ;
419 [label="gini = 0.0\nsamples = 14\nvalue = [0, 0, 0, 0, 0, 14, 0, 0, 0, 0]\nclass = default", fillcolor="#399de5"] ;
417 -> 419 ;
420 [label="src2dst_bytes <= 321911.0\ngini = 0.003\nsamples = 705\nvalue = [0, 0, 0, 0, 0, 704, 0, 0, 1, 0]\nclass = default", fillcolor="#399de5"] ;
410 -> 420 ;
421 [label="gini = 0.0\nsamples = 704\nvalue = [0, 0, 0, 0, 0, 704, 0, 0, 0, 0]\nclass = default", fillcolor="#399de5"] ;
420 -> 421 ;
422 [label="gini = 0.0\nsamples = 1\nvalue = [0, 0, 0, 0, 0, 0, 0, 0, 1, 0]\nclass = transaction", fillcolor="#e539c0"] ;
420 -> 422 ;
423 [label="src_port <= 51318.5\ngini = 0.107\nsamples = 2767\nvalue = [51, 0, 2614, 1, 16, 11, 31, 0, 41, 2]\nclass = bulk", fillcolor="#82e644"] ;
349 -> 423 ;
424 [label="dst2src_packets <= 2.5\ngini = 0.602\nsamples = 66\nvalue = [38, 0, 0, 1, 16, 3, 4, 0, 2, 2]\nclass = OAM", fillcolor="#f4c8a8"] ;
423 -> 424 ;
425 [label="dst_port <= 634.5\ngini = 0.335\nsamples = 20\nvalue = [0, 0, 0, 1, 16, 3, 0, 0, 0, 0]\nclass = critical", fillcolor="#68ebd3"] ;
424 -> 425 ;
426 [label="gini = 0.0\nsamples = 16\nvalue = [0, 0, 0, 0, 16, 0, 0, 0, 0, 0]\nclass = critical", fillcolor="#39e5c5"] ;
425 -> 426 ;
427 [label="dst2src_bytes <= 163.5\ngini = 0.375\nsamples = 4\nvalue = [0, 0, 0, 1, 0, 3, 0, 0, 0, 0]\nclass = default", fillcolor="#7bbeee"] ;
425 -> 427 ;
428 [label="gini = 0.0\nsamples = 3\nvalue = [0, 0, 0, 0, 0, 3, 0, 0, 0, 0]\nclass = default", fillcolor="#399de5"] ;
427 -> 428 ;
429 [label="gini = 0.0\nsamples = 1\nvalue = [0, 0, 0, 1, 0, 0, 0, 0, 0, 0]\nclass = control", fillcolor="#39e55e"] ;
427 -> 429 ;
430 [label="src_port <= 49430.5\ngini = 0.306\nsamples = 46\nvalue = [38, 0, 0, 0, 0, 0, 4, 0, 2, 2]\nclass = OAM", fillcolor="#ea995f"] ;
424 -> 430 ;
431 [label="src2dst_bytes <= 3044.5\ngini = 0.095\nsamples = 40\nvalue = [38, 0, 0, 0, 0, 0, 0, 0, 0, 2]\nclass = OAM", fillcolor="#e68843"] ;
430 -> 431 ;
432 [label="gini = 0.0\nsamples = 2\nvalue = [0, 0, 0, 0, 0, 0, 0, 0, 0, 2]\nclass = video", fillcolor="#e53958"] ;
431 -> 432 ;
433 [label="gini = 0.0\nsamples = 38\nvalue = [38, 0, 0, 0, 0, 0, 0, 0, 0, 0]\nclass = OAM", fillcolor="#e58139"] ;
431 -> 433 ;
434 [label="dst_port <= 881.5\ngini = 0.444\nsamples = 6\nvalue = [0, 0, 0, 0, 0, 0, 4, 0, 2, 0]\nclass = p2p", fillcolor="#9e9cf2"] ;
430 -> 434 ;
435 [label="gini = 0.0\nsamples = 4\nvalue = [0, 0, 0, 0, 0, 0, 4, 0, 0, 0]\nclass = p2p", fillcolor="#3c39e5"] ;
434 -> 435 ;
436 [label="gini = 0.0\nsamples = 2\nvalue = [0, 0, 0, 0, 0, 0, 0, 0, 2, 0]\nclass = transaction", fillcolor="#e539c0"] ;
434 -> 436 ;
437 [label="protocol <= 7.0\ngini = 0.063\nsamples = 2701\nvalue = [13, 0, 2614, 0, 0, 8, 27, 0, 39, 0]\nclass = bulk", fillcolor="#7fe63f"] ;
423 -> 437 ;
438 [label="dst2src_bytes <= 47782.5\ngini = 0.048\nsamples = 2680\nvalue = [0, 0, 2614, 0, 0, 0, 27, 0, 39, 0]\nclass = bulk", fillcolor="#7ee63e"] ;
437 -> 438 ;
439 [label="src2dst_bytes <= 20971.0\ngini = 0.037\nsamples = 2664\nvalue = [0, 0, 2614, 0, 0, 0, 13, 0, 37, 0]\nclass = bulk", fillcolor="#7ee53d"] ;
438 -> 439 ;
440 [label="src2dst_packets <= 27.5\ngini = 0.032\nsamples = 2646\nvalue = [0, 0, 2603, 0, 0, 0, 7, 0, 36, 0]\nclass = bulk", fillcolor="#7de53c"] ;
439 -> 440 ;
441 [label="gini = 0.0\nsamples = 2\nvalue = [0, 0, 0, 0, 0, 0, 2, 0, 0, 0]\nclass = p2p", fillcolor="#3c39e5"] ;
440 -> 441 ;
442 [label="src2dst_packets <= 48.5\ngini = 0.031\nsamples = 2644\nvalue = [0, 0, 2603, 0, 0, 0, 5, 0, 36, 0]\nclass = bulk", fillcolor="#7de53c"] ;
440 -> 442 ;
443 [label="gini = 0.102\nsamples = 668\nvalue = [0, 0, 632, 0, 0, 0, 2, 0, 34, 0]\nclass = bulk", fillcolor="#82e644"] ;
442 -> 443 ;
444 [label="gini = 0.005\nsamples = 1976\nvalue = [0, 0, 1971, 0, 0, 0, 3, 0, 2, 0]\nclass = bulk", fillcolor="#7be53a"] ;
442 -> 444 ;
445 [label="dst_port <= 635.0\ngini = 0.512\nsamples = 18\nvalue = [0, 0, 11, 0, 0, 0, 6, 0, 1, 0]\nclass = bulk", fillcolor="#c8f4ac"] ;
439 -> 445 ;
446 [label="gini = 0.0\nsamples = 11\nvalue = [0, 0, 11, 0, 0, 0, 0, 0, 0, 0]\nclass = bulk", fillcolor="#7be539"] ;
445 -> 446 ;
447 [label="dst2src_bytes <= 19803.5\ngini = 0.245\nsamples = 7\nvalue = [0, 0, 0, 0, 0, 0, 6, 0, 1, 0]\nclass = p2p", fillcolor="#5d5ae9"] ;
445 -> 447 ;
448 [label="gini = 0.0\nsamples = 6\nvalue = [0, 0, 0, 0, 0, 0, 6, 0, 0, 0]\nclass = p2p", fillcolor="#3c39e5"] ;
447 -> 448 ;
449 [label="gini = 0.0\nsamples = 1\nvalue = [0, 0, 0, 0, 0, 0, 0, 0, 1, 0]\nclass = transaction", fillcolor="#e539c0"] ;
447 -> 449 ;
450 [label="src_port <= 56652.5\ngini = 0.219\nsamples = 16\nvalue = [0, 0, 0, 0, 0, 0, 14, 0, 2, 0]\nclass = p2p", fillcolor="#5855e9"] ;
438 -> 450 ;
451 [label="gini = 0.0\nsamples = 2\nvalue = [0, 0, 0, 0, 0, 0, 0, 0, 2, 0]\nclass = transaction", fillcolor="#e539c0"] ;
450 -> 451 ;
452 [label="gini = 0.0\nsamples = 14\nvalue = [0, 0, 0, 0, 0, 0, 14, 0, 0, 0]\nclass = p2p", fillcolor="#3c39e5"] ;
450 -> 452 ;
453 [label="protocol <= 12.5\ngini = 0.472\nsamples = 21\nvalue = [13, 0, 0, 0, 0, 8, 0, 0, 0, 0]\nclass = OAM", fillcolor="#f5cfb3"] ;
437 -> 453 ;
454 [label="gini = 0.0\nsamples = 13\nvalue = [13, 0, 0, 0, 0, 0, 0, 0, 0, 0]\nclass = OAM", fillcolor="#e58139"] ;
453 -> 454 ;
455 [label="gini = 0.0\nsamples = 8\nvalue = [0, 0, 0, 0, 0, 8, 0, 0, 0, 0]\nclass = default", fillcolor="#399de5"] ;
453 -> 455 ;
456 [label="dst_port <= 1902.5\ngini = 0.832\nsamples = 125917\nvalue = [22747, 23450, 8513, 257, 1433, 22485, 22442, 22688\n1580, 322]\nclass = VoIP", fillcolor="#fffffe"] ;
182 -> 456 ;
457 [label="dst_port <= 1899.5\ngini = 0.106\nsamples = 22696\nvalue = [21453, 0, 0, 20, 0, 320, 516, 358, 29, 0]\nclass = OAM", fillcolor="#e68844"] ;
456 -> 457 ;
458 [label="protocol <= 16.5\ngini = 0.741\nsamples = 1441\nvalue = [198, 0, 0, 20, 0, 320, 516, 358, 29, 0]\nclass = p2p", fillcolor="#e3e2fb"] ;
457 -> 458 ;
459 [label="dst_port <= 1120.5\ngini = 0.621\nsamples = 628\nvalue = [196.0, 0.0, 0.0, 3.0, 0.0, 77.0, 323.0, 0.0, 29.0\n0.0]\nclass = p2p", fillcolor="#c6c5f7"] ;
458 -> 459 ;
460 [label="protocol <= 7.0\ngini = 0.226\nsamples = 336\nvalue = [24, 0, 0, 0, 0, 0, 294, 0, 18, 0]\nclass = p2p", fillcolor="#5654e8"] ;
459 -> 460 ;
461 [label="src_port <= 44724.0\ngini = 0.152\nsamples = 320\nvalue = [8, 0, 0, 0, 0, 0, 294, 0, 18, 0]\nclass = p2p", fillcolor="#4d4ae7"] ;
460 -> 461 ;
462 [label="dst2src_packets <= 161.0\ngini = 0.198\nsamples = 9\nvalue = [8, 0, 0, 0, 0, 0, 0, 0, 1, 0]\nclass = OAM", fillcolor="#e89152"] ;
461 -> 462 ;
463 [label="src2dst_bytes <= 39792.0\ngini = 0.444\nsamples = 3\nvalue = [2, 0, 0, 0, 0, 0, 0, 0, 1, 0]\nclass = OAM", fillcolor="#f2c09c"] ;
462 -> 463 ;
464 [label="gini = 0.0\nsamples = 2\nvalue = [2, 0, 0, 0, 0, 0, 0, 0, 0, 0]\nclass = OAM", fillcolor="#e58139"] ;
463 -> 464 ;
465 [label="gini = 0.0\nsamples = 1\nvalue = [0, 0, 0, 0, 0, 0, 0, 0, 1, 0]\nclass = transaction", fillcolor="#e539c0"] ;
463 -> 465 ;
466 [label="gini = 0.0\nsamples = 6\nvalue = [6, 0, 0, 0, 0, 0, 0, 0, 0, 0]\nclass = OAM", fillcolor="#e58139"] ;
462 -> 466 ;
467 [label="src2dst_bytes <= 927.5\ngini = 0.103\nsamples = 311\nvalue = [0, 0, 0, 0, 0, 0, 294, 0, 17, 0]\nclass = p2p", fillcolor="#4744e7"] ;
461 -> 467 ;
468 [label="gini = 0.0\nsamples = 197\nvalue = [0, 0, 0, 0, 0, 0, 197, 0, 0, 0]\nclass = p2p", fillcolor="#3c39e5"] ;
467 -> 468 ;
469 [label="dst2src_packets <= 11.5\ngini = 0.254\nsamples = 114\nvalue = [0, 0, 0, 0, 0, 0, 97, 0, 17, 0]\nclass = p2p", fillcolor="#5e5cea"] ;
467 -> 469 ;
470 [label="src2dst_bytes <= 931.0\ngini = 0.119\nsamples = 79\nvalue = [0, 0, 0, 0, 0, 0, 74, 0, 5, 0]\nclass = p2p", fillcolor="#4946e7"] ;
469 -> 470 ;
471 [label="gini = 0.0\nsamples = 1\nvalue = [0, 0, 0, 0, 0, 0, 0, 0, 1, 0]\nclass = transaction", fillcolor="#e539c0"] ;
470 -> 471 ;
472 [label="gini = 0.097\nsamples = 78\nvalue = [0, 0, 0, 0, 0, 0, 74, 0, 4, 0]\nclass = p2p", fillcolor="#4744e6"] ;
470 -> 472 ;
473 [label="dst2src_bytes <= 4869.0\ngini = 0.451\nsamples = 35\nvalue = [0, 0, 0, 0, 0, 0, 23, 0, 12, 0]\nclass = p2p", fillcolor="#a2a0f3"] ;
469 -> 473 ;
474 [label="gini = 0.278\nsamples = 12\nvalue = [0, 0, 0, 0, 0, 0, 2, 0, 10, 0]\nclass = transaction", fillcolor="#ea61cd"] ;
473 -> 474 ;
475 [label="gini = 0.159\nsamples = 23\nvalue = [0, 0, 0, 0, 0, 0, 21, 0, 2, 0]\nclass = p2p", fillcolor="#4f4ce7"] ;
473 -> 475 ;
476 [label="gini = 0.0\nsamples = 16\nvalue = [16, 0, 0, 0, 0, 0, 0, 0, 0, 0]\nclass = OAM", fillcolor="#e58139"] ;
460 -> 476 ;
477 [label="src2dst_bytes <= 688.0\ngini = 0.572\nsamples = 292\nvalue = [172, 0, 0, 3, 0, 77, 29, 0, 11, 0]\nclass = OAM", fillcolor="#f4c7a8"] ;
459 -> 477 ;
478 [label="protocol <= 10.5\ngini = 0.265\nsamples = 85\nvalue = [11.0, 0.0, 0.0, 0.0, 0.0, 72.0, 2.0, 0.0, 0.0, 0.0]\nclass = default", fillcolor="#5caeea"] ;
477 -> 478 ;
479 [label="src_port <= 52485.5\ngini = 0.053\nsamples = 73\nvalue = [0, 0, 0, 0, 0, 71, 2, 0, 0, 0]\nclass = default", fillcolor="#3fa0e6"] ;
478 -> 479 ;
480 [label="gini = 0.0\nsamples = 70\nvalue = [0, 0, 0, 0, 0, 70, 0, 0, 0, 0]\nclass = default", fillcolor="#399de5"] ;
479 -> 480 ;
481 [label="src2dst_bytes <= 558.0\ngini = 0.444\nsamples = 3\nvalue = [0, 0, 0, 0, 0, 1, 2, 0, 0, 0]\nclass = p2p", fillcolor="#9e9cf2"] ;
479 -> 481 ;
482 [label="gini = 0.0\nsamples = 2\nvalue = [0, 0, 0, 0, 0, 0, 2, 0, 0, 0]\nclass = p2p", fillcolor="#3c39e5"] ;
481 -> 482 ;
483 [label="gini = 0.0\nsamples = 1\nvalue = [0, 0, 0, 0, 0, 1, 0, 0, 0, 0]\nclass = default", fillcolor="#399de5"] ;
481 -> 483 ;
484 [label="src_port <= 49610.0\ngini = 0.153\nsamples = 12\nvalue = [11, 0, 0, 0, 0, 1, 0, 0, 0, 0]\nclass = OAM", fillcolor="#e78c4b"] ;
478 -> 484 ;
485 [label="gini = 0.0\nsamples = 1\nvalue = [0, 0, 0, 0, 0, 1, 0, 0, 0, 0]\nclass = default", fillcolor="#399de5"] ;
484 -> 485 ;
486 [label="gini = 0.0\nsamples = 11\nvalue = [11, 0, 0, 0, 0, 0, 0, 0, 0, 0]\nclass = OAM", fillcolor="#e58139"] ;
484 -> 486 ;
487 [label="src_port <= 50160.0\ngini = 0.374\nsamples = 207\nvalue = [161, 0, 0, 3, 0, 5, 27, 0, 11, 0]\nclass = OAM", fillcolor="#eca16c"] ;
477 -> 487 ;
488 [label="protocol <= 5.5\ngini = 0.06\nsamples = 131\nvalue = [127, 0, 0, 3, 0, 1, 0, 0, 0, 0]\nclass = OAM", fillcolor="#e6853f"] ;
487 -> 488 ;
489 [label="gini = 0.0\nsamples = 3\nvalue = [0, 0, 0, 3, 0, 0, 0, 0, 0, 0]\nclass = control", fillcolor="#39e55e"] ;
488 -> 489 ;
490 [label="dst2src_bytes <= 9.5\ngini = 0.016\nsamples = 128\nvalue = [127, 0, 0, 0, 0, 1, 0, 0, 0, 0]\nclass = OAM", fillcolor="#e5823b"] ;
488 -> 490 ;
491 [label="gini = 0.0\nsamples = 1\nvalue = [0, 0, 0, 0, 0, 1, 0, 0, 0, 0]\nclass = default", fillcolor="#399de5"] ;
490 -> 491 ;
492 [label="gini = 0.0\nsamples = 127\nvalue = [127, 0, 0, 0, 0, 0, 0, 0, 0, 0]\nclass = OAM", fillcolor="#e58139"] ;
490 -> 492 ;
493 [label="protocol <= 11.5\ngini = 0.65\nsamples = 76\nvalue = [34, 0, 0, 0, 0, 4, 27, 0, 11, 0]\nclass = OAM", fillcolor="#fbede3"] ;
487 -> 493 ;
494 [label="dst2src_bytes <= 13564.0\ngini = 0.531\nsamples = 43\nvalue = [1, 0, 0, 0, 0, 4, 27, 0, 11, 0]\nclass = p2p", fillcolor="#9e9cf2"] ;
493 -> 494 ;
495 [label="protocol <= 7.0\ngini = 0.42\nsamples = 10\nvalue = [0, 0, 0, 0, 0, 3, 0, 0, 7, 0]\nclass = transaction", fillcolor="#f08edb"] ;
494 -> 495 ;
496 [label="gini = 0.0\nsamples = 7\nvalue = [0, 0, 0, 0, 0, 0, 0, 0, 7, 0]\nclass = transaction", fillcolor="#e539c0"] ;
495 -> 496 ;
497 [label="gini = 0.0\nsamples = 3\nvalue = [0, 0, 0, 0, 0, 3, 0, 0, 0, 0]\nclass = default", fillcolor="#399de5"] ;
495 -> 497 ;
498 [label="dst2src_packets <= 275.0\ngini = 0.314\nsamples = 33\nvalue = [1, 0, 0, 0, 0, 1, 27, 0, 4, 0]\nclass = p2p", fillcolor="#6462ea"] ;
494 -> 498 ;
499 [label="gini = 0.135\nsamples = 28\nvalue = [0, 0, 0, 0, 0, 1, 26, 0, 1, 0]\nclass = p2p", fillcolor="#4a48e7"] ;
498 -> 499 ;
500 [label="gini = 0.56\nsamples = 5\nvalue = [1, 0, 0, 0, 0, 0, 1, 0, 3, 0]\nclass = transaction", fillcolor="#f29ce0"] ;
498 -> 500 ;
501 [label="gini = 0.0\nsamples = 33\nvalue = [33, 0, 0, 0, 0, 0, 0, 0, 0, 0]\nclass = OAM", fillcolor="#e58139"] ;
493 -> 501 ;
502 [label="dst2src_bytes <= 57.5\ngini = 0.66\nsamples = 813\nvalue = [2, 0, 0, 17, 0, 243, 193, 358, 0, 0]\nclass = signaling", fillcolor="#ecd7fa"] ;
458 -> 502 ;
503 [label="src2dst_bytes <= 358.5\ngini = 0.475\nsamples = 361\nvalue = [0, 0, 0, 12, 0, 235, 114, 0, 0, 0]\nclass = default", fillcolor="#9ecff2"] ;
502 -> 503 ;
504 [label="src2dst_bytes <= 288.5\ngini = 0.403\nsamples = 135\nvalue = [0, 0, 0, 10, 0, 24, 101, 0, 0, 0]\nclass = p2p", fillcolor="#7876ed"] ;
503 -> 504 ;
505 [label="src_port <= 7268.5\ngini = 0.422\nsamples = 33\nvalue = [0, 0, 0, 10, 0, 23, 0, 0, 0, 0]\nclass = default", fillcolor="#8fc8f0"] ;
504 -> 505 ;
506 [label="gini = 0.0\nsamples = 10\nvalue = [0, 0, 0, 10, 0, 0, 0, 0, 0, 0]\nclass = control", fillcolor="#39e55e"] ;
505 -> 506 ;
507 [label="gini = 0.0\nsamples = 23\nvalue = [0, 0, 0, 0, 0, 23, 0, 0, 0, 0]\nclass = default", fillcolor="#399de5"] ;
505 -> 507 ;
508 [label="src2dst_packets <= 2.5\ngini = 0.019\nsamples = 102\nvalue = [0, 0, 0, 0, 0, 1, 101, 0, 0, 0]\nclass = p2p", fillcolor="#3e3be5"] ;
504 -> 508 ;
509 [label="gini = 0.0\nsamples = 101\nvalue = [0, 0, 0, 0, 0, 0, 101, 0, 0, 0]\nclass = p2p", fillcolor="#3c39e5"] ;
508 -> 509 ;
510 [label="gini = 0.0\nsamples = 1\nvalue = [0, 0, 0, 0, 0, 1, 0, 0, 0, 0]\nclass = default", fillcolor="#399de5"] ;
508 -> 510 ;
511 [label="dst_port <= 1220.5\ngini = 0.125\nsamples = 226\nvalue = [0, 0, 0, 2, 0, 211, 13, 0, 0, 0]\nclass = default", fillcolor="#47a4e7"] ;
503 -> 511 ;
512 [label="src_port <= 12286.5\ngini = 0.414\nsamples = 41\nvalue = [0, 0, 0, 0, 0, 29, 12, 0, 0, 0]\nclass = default", fillcolor="#8bc6f0"] ;
511 -> 512 ;
513 [label="gini = 0.0\nsamples = 25\nvalue = [0, 0, 0, 0, 0, 25, 0, 0, 0, 0]\nclass = default", fillcolor="#399de5"] ;
512 -> 513 ;
514 [label="src_port <= 34288.0\ngini = 0.375\nsamples = 16\nvalue = [0, 0, 0, 0, 0, 4, 12, 0, 0, 0]\nclass = p2p", fillcolor="#7d7bee"] ;
512 -> 514 ;
515 [label="gini = 0.0\nsamples = 12\nvalue = [0, 0, 0, 0, 0, 0, 12, 0, 0, 0]\nclass = p2p", fillcolor="#3c39e5"] ;
514 -> 515 ;
516 [label="gini = 0.0\nsamples = 4\nvalue = [0, 0, 0, 0, 0, 4, 0, 0, 0, 0]\nclass = default", fillcolor="#399de5"] ;
514 -> 516 ;
517 [label="dst2src_bytes <= 11.0\ngini = 0.032\nsamples = 185\nvalue = [0, 0, 0, 2, 0, 182, 1, 0, 0, 0]\nclass = default", fillcolor="#3c9fe5"] ;
511 -> 517 ;
518 [label="src2dst_packets <= 3.5\ngini = 0.011\nsamples = 183\nvalue = [0, 0, 0, 0, 0, 182, 1, 0, 0, 0]\nclass = default", fillcolor="#3a9ee5"] ;
517 -> 518 ;
519 [label="src2dst_packets <= 2.5\ngini = 0.444\nsamples = 3\nvalue = [0, 0, 0, 0, 0, 2, 1, 0, 0, 0]\nclass = default", fillcolor="#9ccef2"] ;
518 -> 519 ;
520 [label="gini = 0.0\nsamples = 1\nvalue = [0, 0, 0, 0, 0, 1, 0, 0, 0, 0]\nclass = default", fillcolor="#399de5"] ;
519 -> 520 ;
521 [label="gini = 0.5\nsamples = 2\nvalue = [0, 0, 0, 0, 0, 1, 1, 0, 0, 0]\nclass = default", fillcolor="#ffffff"] ;
519 -> 521 ;
522 [label="gini = 0.0\nsamples = 180\nvalue = [0, 0, 0, 0, 0, 180, 0, 0, 0, 0]\nclass = default", fillcolor="#399de5"] ;
518 -> 522 ;
523 [label="gini = 0.0\nsamples = 2\nvalue = [0, 0, 0, 2, 0, 0, 0, 0, 0, 0]\nclass = control", fillcolor="#39e55e"] ;
517 -> 523 ;
524 [label="src_port <= 25090.5\ngini = 0.342\nsamples = 452\nvalue = [2, 0, 0, 5, 0, 8, 79, 358, 0, 0]\nclass = signaling", fillcolor="#ba6bec"] ;
502 -> 524 ;
525 [label="src2dst_bytes <= 7685.0\ngini = 0.048\nsamples = 81\nvalue = [2, 0, 0, 0, 0, 0, 79, 0, 0, 0]\nclass = p2p", fillcolor="#413ee6"] ;
524 -> 525 ;
526 [label="gini = 0.0\nsamples = 79\nvalue = [0, 0, 0, 0, 0, 0, 79, 0, 0, 0]\nclass = p2p", fillcolor="#3c39e5"] ;
525 -> 526 ;
527 [label="gini = 0.0\nsamples = 2\nvalue = [2, 0, 0, 0, 0, 0, 0, 0, 0, 0]\nclass = OAM", fillcolor="#e58139"] ;
525 -> 527 ;
528 [label="dst2src_packets <= 16.0\ngini = 0.068\nsamples = 371\nvalue = [0, 0, 0, 5, 0, 8, 0, 358, 0, 0]\nclass = signaling", fillcolor="#a640e6"] ;
524 -> 528 ;
529 [label="src_port <= 61727.5\ngini = 0.032\nsamples = 364\nvalue = [0, 0, 0, 5, 0, 1, 0, 358, 0, 0]\nclass = signaling", fillcolor="#a53ce5"] ;
528 -> 529 ;
530 [label="src2dst_packets <= 3.5\ngini = 0.017\nsamples = 361\nvalue = [0, 0, 0, 2, 0, 1, 0, 358, 0, 0]\nclass = signaling", fillcolor="#a43be5"] ;
529 -> 530 ;
531 [label="dst2src_packets <= 0.5\ngini = 0.057\nsamples = 102\nvalue = [0, 0, 0, 2, 0, 1, 0, 99, 0, 0]\nclass = signaling", fillcolor="#a63fe6"] ;
530 -> 531 ;
532 [label="gini = 0.375\nsamples = 4\nvalue = [0, 0, 0, 0, 0, 1, 0, 3, 0, 0]\nclass = signaling", fillcolor="#c27bee"] ;
531 -> 532 ;
533 [label="gini = 0.04\nsamples = 98\nvalue = [0.0, 0.0, 0.0, 2.0, 0.0, 0.0, 0.0, 96.0, 0.0, 0.0]\nclass = signaling", fillcolor="#a53de6"] ;
531 -> 533 ;
534 [label="gini = 0.0\nsamples = 259\nvalue = [0, 0, 0, 0, 0, 0, 0, 259, 0, 0]\nclass = signaling", fillcolor="#a339e5"] ;
530 -> 534 ;
535 [label="gini = 0.0\nsamples = 3\nvalue = [0, 0, 0, 3, 0, 0, 0, 0, 0, 0]\nclass = control", fillcolor="#39e55e"] ;
529 -> 535 ;
536 [label="gini = 0.0\nsamples = 7\nvalue = [0, 0, 0, 0, 0, 7, 0, 0, 0, 0]\nclass = default", fillcolor="#399de5"] ;
528 -> 536 ;
537 [label="gini = 0.0\nsamples = 21255\nvalue = [21255, 0, 0, 0, 0, 0, 0, 0, 0, 0]\nclass = OAM", fillcolor="#e58139"] ;
457 -> 537 ;
538 [label="protocol <= 6.5\ngini = 0.803\nsamples = 103221\nvalue = [1294.0, 23450.0, 8513.0, 237.0, 1433.0, 22165.0, 21926.0\n22330.0, 1551.0, 322.0]\nclass = VoIP", fillcolor="#fffffc"] ;
456 -> 538 ;
539 [label="dst_port <= 9361.0\ngini = 0.504\nsamples = 27761\nvalue = [329.0, 0.0, 923.0, 1.0, 1.0, 18437.0, 6246.0, 0.0\n1502.0, 322.0]\nclass = default", fillcolor="#8fc7f0"] ;
538 -> 539 ;
540 [label="dst2src_bytes <= 1447.5\ngini = 0.165\nsamples = 15241\nvalue = [139, 0, 2, 1, 0, 13894, 395, 0, 803, 7]\nclass = default", fillcolor="#4ba6e7"] ;
539 -> 540 ;
541 [label="dst_port <= 8000.5\ngini = 0.029\nsamples = 13492\nvalue = [0, 0, 0, 1, 0, 13292, 110, 0, 89, 0]\nclass = default", fillcolor="#3c9ee5"] ;
540 -> 541 ;
542 [label="src2dst_bytes <= 2784.0\ngini = 0.019\nsamples = 13081\nvalue = [0, 0, 0, 1, 0, 12954, 97, 0, 29, 0]\nclass = default", fillcolor="#3b9ee5"] ;
541 -> 542 ;
543 [label="src_port <= 52140.5\ngini = 0.018\nsamples = 13074\nvalue = [0, 0, 0, 0, 0, 12954, 94, 0, 26, 0]\nclass = default", fillcolor="#3b9ee5"] ;
542 -> 543 ;
544 [label="src2dst_packets <= 13.0\ngini = 0.002\nsamples = 8415\nvalue = [0, 0, 0, 0, 0, 8406, 0, 0, 9, 0]\nclass = default", fillcolor="#399de5"] ;
543 -> 544 ;
545 [label="src2dst_packets <= 11.5\ngini = 0.001\nsamples = 8411\nvalue = [0, 0, 0, 0, 0, 8405, 0, 0, 6, 0]\nclass = default", fillcolor="#399de5"] ;
544 -> 545 ;
546 [label="gini = 0.001\nsamples = 8396\nvalue = [0, 0, 0, 0, 0, 8393, 0, 0, 3, 0]\nclass = default", fillcolor="#399de5"] ;
545 -> 546 ;
547 [label="gini = 0.32\nsamples = 15\nvalue = [0, 0, 0, 0, 0, 12, 0, 0, 3, 0]\nclass = default", fillcolor="#6ab6ec"] ;
545 -> 547 ;
548 [label="src2dst_bytes <= 1254.0\ngini = 0.375\nsamples = 4\nvalue = [0, 0, 0, 0, 0, 1, 0, 0, 3, 0]\nclass = transaction", fillcolor="#ee7bd5"] ;
544 -> 548 ;
549 [label="gini = 0.0\nsamples = 3\nvalue = [0, 0, 0, 0, 0, 0, 0, 0, 3, 0]\nclass = transaction", fillcolor="#e539c0"] ;
548 -> 549 ;
550 [label="gini = 0.0\nsamples = 1\nvalue = [0, 0, 0, 0, 0, 1, 0, 0, 0, 0]\nclass = default", fillcolor="#399de5"] ;
548 -> 550 ;
551 [label="dst_port <= 7568.0\ngini = 0.047\nsamples = 4659\nvalue = [0, 0, 0, 0, 0, 4548, 94, 0, 17, 0]\nclass = default", fillcolor="#3e9fe6"] ;
543 -> 551 ;
552 [label="dst_port <= 2463.0\ngini = 0.093\nsamples = 2257\nvalue = [0, 0, 0, 0, 0, 2148, 92, 0, 17, 0]\nclass = default", fillcolor="#43a2e6"] ;
551 -> 552 ;
553 [label="gini = 0.001\nsamples = 2113\nvalue = [0, 0, 0, 0, 0, 2112, 1, 0, 0, 0]\nclass = default", fillcolor="#399de5"] ;
552 -> 553 ;
554 [label="gini = 0.524\nsamples = 144\nvalue = [0, 0, 0, 0, 0, 36, 91, 0, 17, 0]\nclass = p2p", fillcolor="#9c9af2"] ;
552 -> 554 ;
555 [label="src2dst_bytes <= 226.0\ngini = 0.002\nsamples = 2402\nvalue = [0, 0, 0, 0, 0, 2400, 2, 0, 0, 0]\nclass = default", fillcolor="#399de5"] ;
551 -> 555 ;
556 [label="gini = 0.219\nsamples = 16\nvalue = [0, 0, 0, 0, 0, 14, 2, 0, 0, 0]\nclass = default", fillcolor="#55abe9"] ;
555 -> 556 ;
557 [label="gini = 0.0\nsamples = 2386\nvalue = [0, 0, 0, 0, 0, 2386, 0, 0, 0, 0]\nclass = default", fillcolor="#399de5"] ;
555 -> 557 ;
558 [label="dst2src_packets <= 3.5\ngini = 0.612\nsamples = 7\nvalue = [0, 0, 0, 1, 0, 0, 3, 0, 3, 0]\nclass = p2p", fillcolor="#ffffff"] ;
542 -> 558 ;
559 [label="gini = 0.0\nsamples = 3\nvalue = [0, 0, 0, 0, 0, 0, 3, 0, 0, 0]\nclass = p2p", fillcolor="#3c39e5"] ;
558 -> 559 ;
560 [label="src2dst_packets <= 70.5\ngini = 0.375\nsamples = 4\nvalue = [0, 0, 0, 1, 0, 0, 0, 0, 3, 0]\nclass = transaction", fillcolor="#ee7bd5"] ;
558 -> 560 ;
561 [label="gini = 0.0\nsamples = 3\nvalue = [0, 0, 0, 0, 0, 0, 0, 0, 3, 0]\nclass = transaction", fillcolor="#e539c0"] ;
560 -> 561 ;
562 [label="gini = 0.0\nsamples = 1\nvalue = [0, 0, 0, 1, 0, 0, 0, 0, 0, 0]\nclass = control", fillcolor="#39e55e"] ;
560 -> 562 ;
563 [label="dst_port <= 8080.5\ngini = 0.301\nsamples = 411\nvalue = [0.0, 0.0, 0.0, 0.0, 0.0, 338.0, 13.0, 0.0, 60.0, 0.0]\nclass = default", fillcolor="#62b1ea"] ;
541 -> 563 ;
564 [label="gini = 0.0\nsamples = 54\nvalue = [0, 0, 0, 0, 0, 0, 0, 0, 54, 0]\nclass = transaction", fillcolor="#e539c0"] ;
563 -> 564 ;
565 [label="dst_port <= 8994.0\ngini = 0.102\nsamples = 357\nvalue = [0, 0, 0, 0, 0, 338, 13, 0, 6, 0]\nclass = default", fillcolor="#44a2e6"] ;
563 -> 565 ;
566 [label="dst_port <= 8710.0\ngini = 0.044\nsamples = 316\nvalue = [0, 0, 0, 0, 0, 309, 3, 0, 4, 0]\nclass = default", fillcolor="#3d9fe6"] ;
565 -> 566 ;
567 [label="src2dst_bytes <= 1292.5\ngini = 0.595\nsamples = 11\nvalue = [0, 0, 0, 0, 0, 6, 3, 0, 2, 0]\nclass = default", fillcolor="#b5daf5"] ;
566 -> 567 ;
568 [label="gini = 0.56\nsamples = 5\nvalue = [0, 0, 0, 0, 0, 1, 3, 0, 1, 0]\nclass = p2p", fillcolor="#9e9cf2"] ;
567 -> 568 ;
569 [label="gini = 0.278\nsamples = 6\nvalue = [0, 0, 0, 0, 0, 5, 0, 0, 1, 0]\nclass = default", fillcolor="#61b1ea"] ;
567 -> 569 ;
570 [label="src2dst_bytes <= 1289.5\ngini = 0.013\nsamples = 305\nvalue = [0, 0, 0, 0, 0, 303, 0, 0, 2, 0]\nclass = default", fillcolor="#3a9ee5"] ;
566 -> 570 ;
571 [label="gini = 0.0\nsamples = 282\nvalue = [0, 0, 0, 0, 0, 282, 0, 0, 0, 0]\nclass = default", fillcolor="#399de5"] ;
570 -> 571 ;
572 [label="gini = 0.159\nsamples = 23\nvalue = [0, 0, 0, 0, 0, 21, 0, 0, 2, 0]\nclass = default", fillcolor="#4ca6e7"] ;
570 -> 572 ;
573 [label="dst2src_bytes <= 370.0\ngini = 0.438\nsamples = 41\nvalue = [0, 0, 0, 0, 0, 29, 10, 0, 2, 0]\nclass = default", fillcolor="#86c3ef"] ;
565 -> 573 ;
574 [label="gini = 0.0\nsamples = 29\nvalue = [0, 0, 0, 0, 0, 29, 0, 0, 0, 0]\nclass = default", fillcolor="#399de5"] ;
573 -> 574 ;
575 [label="src_port <= 58876.5\ngini = 0.278\nsamples = 12\nvalue = [0, 0, 0, 0, 0, 0, 10, 0, 2, 0]\nclass = p2p", fillcolor="#6361ea"] ;
573 -> 575 ;
576 [label="gini = 0.0\nsamples = 10\nvalue = [0, 0, 0, 0, 0, 0, 10, 0, 0, 0]\nclass = p2p", fillcolor="#3c39e5"] ;
575 -> 576 ;
577 [label="gini = 0.0\nsamples = 2\nvalue = [0, 0, 0, 0, 0, 0, 0, 0, 2, 0]\nclass = transaction", fillcolor="#e539c0"] ;
575 -> 577 ;
578 [label="dst_port <= 2225.0\ngini = 0.682\nsamples = 1749\nvalue = [139.0, 0.0, 2.0, 0.0, 0.0, 602.0, 285.0, 0.0, 714.0\n7.0]\nclass = transaction", fillcolor="#fcecf9"] ;
540 -> 578 ;
579 [label="src_port <= 40733.0\ngini = 0.18\nsamples = 373\nvalue = [22, 0, 1, 0, 0, 337, 9, 0, 4, 0]\nclass = default", fillcolor="#4da7e8"] ;
578 -> 579 ;
580 [label="gini = 0.0\nsamples = 21\nvalue = [21, 0, 0, 0, 0, 0, 0, 0, 0, 0]\nclass = OAM", fillcolor="#e58139"] ;
579 -> 580 ;
581 [label="dst_port <= 2101.5\ngini = 0.083\nsamples = 352\nvalue = [1, 0, 1, 0, 0, 337, 9, 0, 4, 0]\nclass = default", fillcolor="#42a1e6"] ;
579 -> 581 ;
582 [label="src_port <= 55500.0\ngini = 0.617\nsamples = 9\nvalue = [1, 0, 0, 0, 0, 2, 5, 0, 1, 0]\nclass = p2p", fillcolor="#abaaf4"] ;
581 -> 582 ;
583 [label="src2dst_bytes <= 5267423.5\ngini = 0.278\nsamples = 6\nvalue = [1, 0, 0, 0, 0, 0, 5, 0, 0, 0]\nclass = p2p", fillcolor="#6361ea"] ;
582 -> 583 ;
584 [label="gini = 0.0\nsamples = 5\nvalue = [0, 0, 0, 0, 0, 0, 5, 0, 0, 0]\nclass = p2p", fillcolor="#3c39e5"] ;
583 -> 584 ;
585 [label="gini = 0.0\nsamples = 1\nvalue = [1, 0, 0, 0, 0, 0, 0, 0, 0, 0]\nclass = OAM", fillcolor="#e58139"] ;
583 -> 585 ;
586 [label="src2dst_packets <= 25009.0\ngini = 0.444\nsamples = 3\nvalue = [0, 0, 0, 0, 0, 2, 0, 0, 1, 0]\nclass = default", fillcolor="#9ccef2"] ;
582 -> 586 ;
587 [label="gini = 0.0\nsamples = 2\nvalue = [0, 0, 0, 0, 0, 2, 0, 0, 0, 0]\nclass = default", fillcolor="#399de5"] ;
586 -> 587 ;
588 [label="gini = 0.0\nsamples = 1\nvalue = [0, 0, 0, 0, 0, 0, 0, 0, 1, 0]\nclass = transaction", fillcolor="#e539c0"] ;
586 -> 588 ;
589 [label="src_port <= 51391.0\ngini = 0.046\nsamples = 343\nvalue = [0, 0, 1, 0, 0, 335, 4, 0, 3, 0]\nclass = default", fillcolor="#3e9fe6"] ;
581 -> 589 ;
590 [label="dst2src_bytes <= 9150.0\ngini = 0.5\nsamples = 6\nvalue = [0, 0, 0, 0, 0, 3, 0, 0, 3, 0]\nclass = default", fillcolor="#ffffff"] ;
589 -> 590 ;
591 [label="gini = 0.0\nsamples = 3\nvalue = [0, 0, 0, 0, 0, 3, 0, 0, 0, 0]\nclass = default", fillcolor="#399de5"] ;
590 -> 591 ;
592 [label="gini = 0.0\nsamples = 3\nvalue = [0, 0, 0, 0, 0, 0, 0, 0, 3, 0]\nclass = transaction", fillcolor="#e539c0"] ;
590 -> 592 ;
593 [label="dst_port <= 2214.0\ngini = 0.029\nsamples = 337\nvalue = [0, 0, 1, 0, 0, 332, 4, 0, 0, 0]\nclass = default", fillcolor="#3c9ee5"] ;
589 -> 593 ;
594 [label="gini = 0.279\nsamples = 31\nvalue = [0, 0, 1, 0, 0, 26, 4, 0, 0, 0]\nclass = default", fillcolor="#5eafea"] ;
593 -> 594 ;
595 [label="gini = 0.0\nsamples = 306\nvalue = [0, 0, 0, 0, 0, 306, 0, 0, 0, 0]\nclass = default", fillcolor="#399de5"] ;
593 -> 595 ;
596 [label="src_port <= 64879.5\ngini = 0.649\nsamples = 1376\nvalue = [117.0, 0.0, 1.0, 0.0, 0.0, 265.0, 276.0, 0.0, 710.0\n7.0]\nclass = transaction", fillcolor="#f5b1e6"] ;
578 -> 596 ;
597 [label="src_port <= 2966.5\ngini = 0.614\nsamples = 1264\nvalue = [117.0, 0.0, 1.0, 0.0, 0.0, 153.0, 276.0, 0.0, 710.0\n7.0]\nclass = transaction", fillcolor="#f4a8e3"] ;
596 -> 597 ;
598 [label="src2dst_bytes <= 4220.0\ngini = 0.156\nsamples = 95\nvalue = [87.0, 0.0, 0.0, 0.0, 0.0, 0.0, 0.0, 0.0, 1.0, 7.0]\nclass = OAM", fillcolor="#e78c4b"] ;
597 -> 598 ;
599 [label="dst2src_packets <= 18.0\ngini = 0.42\nsamples = 10\nvalue = [3, 0, 0, 0, 0, 0, 0, 0, 0, 7]\nclass = video", fillcolor="#f08ea0"] ;
598 -> 599 ;
600 [label="gini = 0.0\nsamples = 3\nvalue = [3, 0, 0, 0, 0, 0, 0, 0, 0, 0]\nclass = OAM", fillcolor="#e58139"] ;
599 -> 600 ;
601 [label="gini = 0.0\nsamples = 7\nvalue = [0, 0, 0, 0, 0, 0, 0, 0, 0, 7]\nclass = video", fillcolor="#e53958"] ;
599 -> 601 ;
602 [label="src_port <= 1639.5\ngini = 0.023\nsamples = 85\nvalue = [84, 0, 0, 0, 0, 0, 0, 0, 1, 0]\nclass = OAM", fillcolor="#e5823b"] ;
598 -> 602 ;
603 [label="gini = 0.0\nsamples = 81\nvalue = [81, 0, 0, 0, 0, 0, 0, 0, 0, 0]\nclass = OAM", fillcolor="#e58139"] ;
602 -> 603 ;
604 [label="gini = 0.375\nsamples = 4\nvalue = [3, 0, 0, 0, 0, 0, 0, 0, 1, 0]\nclass = OAM", fillcolor="#eeab7b"] ;
602 -> 604 ;
605 [label="dst_port <= 9335.0\ngini = 0.559\nsamples = 1169\nvalue = [30.0, 0.0, 1.0, 0.0, 0.0, 153.0, 276.0, 0.0, 709.0\n0.0]\nclass = transaction", fillcolor="#f29fe0"] ;
597 -> 605 ;
606 [label="dst_port <= 5225.0\ngini = 0.517\nsamples = 1103\nvalue = [30, 0, 1, 0, 0, 87, 276, 0, 709, 0]\nclass = transaction", fillcolor="#f197de"] ;
605 -> 606 ;
607 [label="gini = 0.565\nsamples = 393\nvalue = [14.0, 0.0, 1.0, 0.0, 0.0, 13.0, 192.0, 0.0, 173.0\n0.0]\nclass = p2p", fillcolor="#eeeefd"] ;
606 -> 607 ;
608 [label="gini = 0.405\nsamples = 710\nvalue = [16, 0, 0, 0, 0, 74, 84, 0, 536, 0]\nclass = transaction", fillcolor="#ec70d2"] ;
606 -> 608 ;
609 [label="gini = 0.0\nsamples = 66\nvalue = [0, 0, 0, 0, 0, 66, 0, 0, 0, 0]\nclass = default", fillcolor="#399de5"] ;
605 -> 609 ;
610 [label="gini = 0.0\nsamples = 112\nvalue = [0, 0, 0, 0, 0, 112, 0, 0, 0, 0]\nclass = default", fillcolor="#399de5"] ;
596 -> 610 ;
611 [label="src_port <= 56776.0\ngini = 0.641\nsamples = 12520\nvalue = [190, 0, 921, 0, 1, 4543, 5851, 0, 699, 315]\nclass = p2p", fillcolor="#dfdffb"] ;
539 -> 611 ;
612 [label="src_port <= 2185.0\ngini = 0.552\nsamples = 4343\nvalue = [190, 0, 559, 0, 1, 2793, 34, 0, 451, 315]\nclass = default", fillcolor="#8ac5f0"] ;
611 -> 612 ;
613 [label="src_port <= 160.0\ngini = 0.715\nsamples = 1142\nvalue = [134, 0, 432, 0, 1, 0, 0, 0, 260, 315]\nclass = bulk", fillcolor="#ecfbe3"] ;
612 -> 613 ;
614 [label="src_port <= 141.0\ngini = 0.486\nsamples = 623\nvalue = [127, 0, 422, 0, 1, 0, 0, 0, 73, 0]\nclass = bulk", fillcolor="#b0f089"] ;
613 -> 614 ;
615 [label="src_port <= 65.5\ngini = 0.469\nsamples = 201\nvalue = [127, 0, 0, 0, 1, 0, 0, 0, 73, 0]\nclass = OAM", fillcolor="#f4caab"] ;
614 -> 615 ;
616 [label="gini = 0.0\nsamples = 126\nvalue = [126, 0, 0, 0, 0, 0, 0, 0, 0, 0]\nclass = OAM", fillcolor="#e58139"] ;
615 -> 616 ;
617 [label="src_port <= 117.0\ngini = 0.052\nsamples = 75\nvalue = [1, 0, 0, 0, 1, 0, 0, 0, 73, 0]\nclass = transaction", fillcolor="#e63ec2"] ;
615 -> 617 ;
618 [label="gini = 0.0\nsamples = 73\nvalue = [0, 0, 0, 0, 0, 0, 0, 0, 73, 0]\nclass = transaction", fillcolor="#e539c0"] ;
617 -> 618 ;
619 [label="gini = 0.5\nsamples = 2\nvalue = [1, 0, 0, 0, 1, 0, 0, 0, 0, 0]\nclass = OAM", fillcolor="#ffffff"] ;
617 -> 619 ;
620 [label="gini = 0.0\nsamples = 422\nvalue = [0, 0, 422, 0, 0, 0, 0, 0, 0, 0]\nclass = bulk", fillcolor="#7be539"] ;
614 -> 620 ;
621 [label="src2dst_packets <= 13.0\ngini = 0.501\nsamples = 519\nvalue = [7, 0, 10, 0, 0, 0, 0, 0, 187, 315]\nclass = video", fillcolor="#f5b3bf"] ;
613 -> 621 ;
622 [label="src_port <= 984.5\ngini = 0.046\nsamples = 84\nvalue = [0, 0, 2, 0, 0, 0, 0, 0, 82, 0]\nclass = transaction", fillcolor="#e63ec2"] ;
621 -> 622 ;
623 [label="gini = 0.0\nsamples = 82\nvalue = [0, 0, 0, 0, 0, 0, 0, 0, 82, 0]\nclass = transaction", fillcolor="#e539c0"] ;
622 -> 623 ;
624 [label="gini = 0.0\nsamples = 2\nvalue = [0, 0, 2, 0, 0, 0, 0, 0, 0, 0]\nclass = bulk", fillcolor="#7be539"] ;
622 -> 624 ;
625 [label="dst2src_packets <= 33.5\ngini = 0.417\nsamples = 435\nvalue = [7, 0, 8, 0, 0, 0, 0, 0, 105, 315]\nclass = video", fillcolor="#ee8195"] ;
621 -> 625 ;
626 [label="src2dst_bytes <= 8459.5\ngini = 0.229\nsamples = 363\nvalue = [0, 0, 0, 0, 0, 0, 0, 0, 48, 315]\nclass = video", fillcolor="#e95771"] ;
625 -> 626 ;
627 [label="gini = 0.073\nsamples = 265\nvalue = [0, 0, 0, 0, 0, 0, 0, 0, 10, 255]\nclass = video", fillcolor="#e6415f"] ;
626 -> 627 ;
628 [label="gini = 0.475\nsamples = 98\nvalue = [0, 0, 0, 0, 0, 0, 0, 0, 38, 60]\nclass = video", fillcolor="#f5b6c2"] ;
626 -> 628 ;
629 [label="src_port <= 519.5\ngini = 0.351\nsamples = 72\nvalue = [7, 0, 8, 0, 0, 0, 0, 0, 57, 0]\nclass = transaction", fillcolor="#eb67cf"] ;
625 -> 629 ;
630 [label="gini = 0.0\nsamples = 54\nvalue = [0, 0, 0, 0, 0, 0, 0, 0, 54, 0]\nclass = transaction", fillcolor="#e539c0"] ;
629 -> 630 ;
631 [label="gini = 0.623\nsamples = 18\nvalue = [7, 0, 8, 0, 0, 0, 0, 0, 3, 0]\nclass = bulk", fillcolor="#f3fded"] ;
629 -> 631 ;
632 [label="src2dst_bytes <= 1285.5\ngini = 0.233\nsamples = 3201\nvalue = [56.0, 0.0, 127.0, 0.0, 0.0, 2793.0, 34.0, 0.0, 191.0\n0.0]\nclass = default", fillcolor="#54aae9"] ;
612 -> 632 ;
633 [label="dst2src_bytes <= 125.5\ngini = 0.097\nsamples = 2747\nvalue = [5.0, 0.0, 101.0, 0.0, 0.0, 2608.0, 18.0, 0.0, 15.0\n0.0]\nclass = default", fillcolor="#43a2e6"] ;
632 -> 633 ;
634 [label="dst2src_bytes <= 6.5\ngini = 0.276\nsamples = 121\nvalue = [0, 0, 101, 0, 0, 20, 0, 0, 0, 0]\nclass = bulk", fillcolor="#95ea60"] ;
633 -> 634 ;
635 [label="gini = 0.0\nsamples = 16\nvalue = [0, 0, 0, 0, 0, 16, 0, 0, 0, 0]\nclass = default", fillcolor="#399de5"] ;
634 -> 635 ;
636 [label="src2dst_bytes <= 132.0\ngini = 0.073\nsamples = 105\nvalue = [0, 0, 101, 0, 0, 4, 0, 0, 0, 0]\nclass = bulk", fillcolor="#80e641"] ;
634 -> 636 ;
637 [label="gini = 0.0\nsamples = 4\nvalue = [0, 0, 0, 0, 0, 4, 0, 0, 0, 0]\nclass = default", fillcolor="#399de5"] ;
636 -> 637 ;
638 [label="gini = 0.0\nsamples = 101\nvalue = [0, 0, 101, 0, 0, 0, 0, 0, 0, 0]\nclass = bulk", fillcolor="#7be539"] ;
636 -> 638 ;
639 [label="src_port <= 38795.0\ngini = 0.029\nsamples = 2626\nvalue = [5.0, 0.0, 0.0, 0.0, 0.0, 2588.0, 18.0, 0.0, 15.0\n0.0]\nclass = default", fillcolor="#3c9ee5"] ;
633 -> 639 ;
640 [label="src_port <= 8013.0\ngini = 0.005\nsamples = 2586\nvalue = [0, 0, 0, 0, 0, 2579, 3, 0, 4, 0]\nclass = default", fillcolor="#3a9de5"] ;
639 -> 640 ;
641 [label="gini = 0.001\nsamples = 2558\nvalue = [0, 0, 0, 0, 0, 2557, 1, 0, 0, 0]\nclass = default", fillcolor="#399de5"] ;
640 -> 641 ;
642 [label="gini = 0.357\nsamples = 28\nvalue = [0, 0, 0, 0, 0, 22, 2, 0, 4, 0]\nclass = default", fillcolor="#6bb6ec"] ;
640 -> 642 ;
643 [label="dst_port <= 55903.5\ngini = 0.718\nsamples = 40\nvalue = [5, 0, 0, 0, 0, 9, 15, 0, 11, 0]\nclass = p2p", fillcolor="#e4e4fb"] ;
639 -> 643 ;
644 [label="gini = 0.635\nsamples = 24\nvalue = [5, 0, 0, 0, 0, 8, 0, 0, 11, 0]\nclass = transaction", fillcolor="#fadaf3"] ;
643 -> 644 ;
645 [label="gini = 0.117\nsamples = 16\nvalue = [0, 0, 0, 0, 0, 1, 15, 0, 0, 0]\nclass = p2p", fillcolor="#4946e7"] ;
643 -> 645 ;
646 [label="src2dst_packets <= 18.5\ngini = 0.667\nsamples = 454\nvalue = [51, 0, 26, 0, 0, 185, 16, 0, 176, 0]\nclass = default", fillcolor="#f9fcfe"] ;
632 -> 646 ;
647 [label="dst2src_bytes <= 769.0\ngini = 0.172\nsamples = 141\nvalue = [0, 0, 1, 0, 0, 8, 4, 0, 128, 0]\nclass = transaction", fillcolor="#e84cc6"] ;
646 -> 647 ;
648 [label="src2dst_packets <= 14.5\ngini = 0.32\nsamples = 5\nvalue = [0, 0, 1, 0, 0, 4, 0, 0, 0, 0]\nclass = default", fillcolor="#6ab6ec"] ;
647 -> 648 ;
649 [label="gini = 0.0\nsamples = 4\nvalue = [0, 0, 0, 0, 0, 4, 0, 0, 0, 0]\nclass = default", fillcolor="#399de5"] ;
648 -> 649 ;
650 [label="gini = 0.0\nsamples = 1\nvalue = [0, 0, 1, 0, 0, 0, 0, 0, 0, 0]\nclass = bulk", fillcolor="#7be539"] ;
648 -> 650 ;
651 [label="dst2src_packets <= 18.5\ngini = 0.112\nsamples = 136\nvalue = [0, 0, 0, 0, 0, 4, 4, 0, 128, 0]\nclass = transaction", fillcolor="#e745c4"] ;
647 -> 651 ;
652 [label="gini = 0.048\nsamples = 123\nvalue = [0, 0, 0, 0, 0, 1, 2, 0, 120, 0]\nclass = transaction", fillcolor="#e63ec2"] ;
651 -> 652 ;
653 [label="gini = 0.544\nsamples = 13\nvalue = [0, 0, 0, 0, 0, 3, 2, 0, 8, 0]\nclass = transaction", fillcolor="#f29ce0"] ;
651 -> 653 ;
654 [label="src_port <= 49569.5\ngini = 0.622\nsamples = 313\nvalue = [51, 0, 25, 0, 0, 177, 12, 0, 48, 0]\nclass = default", fillcolor="#a0d0f2"] ;
646 -> 654 ;
655 [label="dst2src_bytes <= 4139226.0\ngini = 0.763\nsamples = 157\nvalue = [49, 0, 25, 0, 0, 27, 12, 0, 44, 0]\nclass = OAM", fillcolor="#fef9f6"] ;
654 -> 655 ;
656 [label="gini = 0.762\nsamples = 125\nvalue = [17, 0, 25, 0, 0, 27, 12, 0, 44, 0]\nclass = transaction", fillcolor="#faddf4"] ;
655 -> 656 ;
657 [label="gini = 0.0\nsamples = 32\nvalue = [32, 0, 0, 0, 0, 0, 0, 0, 0, 0]\nclass = OAM", fillcolor="#e58139"] ;
655 -> 657 ;
658 [label="dst_port <= 13173.0\ngini = 0.075\nsamples = 156\nvalue = [2, 0, 0, 0, 0, 150, 0, 0, 4, 0]\nclass = default", fillcolor="#41a1e6"] ;
654 -> 658 ;
659 [label="gini = 0.611\nsamples = 6\nvalue = [2, 0, 0, 0, 0, 1, 0, 0, 3, 0]\nclass = transaction", fillcolor="#f8ceef"] ;
658 -> 659 ;
660 [label="gini = 0.013\nsamples = 150\nvalue = [0, 0, 0, 0, 0, 149, 0, 0, 1, 0]\nclass = default", fillcolor="#3a9ee5"] ;
658 -> 660 ;
661 [label="dst2src_bytes <= 2730.0\ngini = 0.445\nsamples = 8177\nvalue = [0, 0, 362, 0, 0, 1750, 5817, 0, 248, 0]\nclass = p2p", fillcolor="#8482ef"] ;
611 -> 661 ;
662 [label="dst2src_bytes <= 360.5\ngini = 0.385\nsamples = 7606\nvalue = [0, 0, 362, 0, 0, 1259, 5817, 0, 168, 0]\nclass = p2p", fillcolor="#7371ec"] ;
661 -> 662 ;
663 [label="dst_port <= 50797.5\ngini = 0.601\nsamples = 2810\nvalue = [0, 0, 362, 0, 0, 1120, 1328, 0, 0, 0]\nclass = p2p", fillcolor="#e7e7fc"] ;
662 -> 663 ;
664 [label="src2dst_bytes <= 601.5\ngini = 0.08\nsamples = 867\nvalue = [0, 0, 16, 0, 0, 831, 20, 0, 0, 0]\nclass = default", fillcolor="#41a1e6"] ;
663 -> 664 ;
665 [label="dst_port <= 49453.5\ngini = 0.037\nsamples = 846\nvalue = [0, 0, 16, 0, 0, 830, 0, 0, 0, 0]\nclass = default", fillcolor="#3d9fe6"] ;
664 -> 665 ;
666 [label="gini = 0.0\nsamples = 806\nvalue = [0, 0, 0, 0, 0, 806, 0, 0, 0, 0]\nclass = default", fillcolor="#399de5"] ;
665 -> 666 ;
667 [label="gini = 0.48\nsamples = 40\nvalue = [0, 0, 16, 0, 0, 24, 0, 0, 0, 0]\nclass = default", fillcolor="#bddef6"] ;
665 -> 667 ;
668 [label="dst2src_packets <= 2.5\ngini = 0.091\nsamples = 21\nvalue = [0, 0, 0, 0, 0, 1, 20, 0, 0, 0]\nclass = p2p", fillcolor="#4643e6"] ;
664 -> 668 ;
669 [label="gini = 0.0\nsamples = 1\nvalue = [0, 0, 0, 0, 0, 1, 0, 0, 0, 0]\nclass = default", fillcolor="#399de5"] ;
668 -> 669 ;
670 [label="gini = 0.0\nsamples = 20\nvalue = [0, 0, 0, 0, 0, 0, 20, 0, 0, 0]\nclass = p2p", fillcolor="#3c39e5"] ;
668 -> 670 ;
671 [label="dst_port <= 51430.0\ngini = 0.493\nsamples = 1943\nvalue = [0, 0, 346, 0, 0, 289, 1308, 0, 0, 0]\nclass = p2p", fillcolor="#8a88ef"] ;
663 -> 671 ;
